{"learner":{"attributes":{"best_iteration":"34","best_ntree_limit":"35","best_score":"0.9963225368406385"},"feature_names":["x0","x1","x2","x3","x4","x5","x6","x7","x8","x9"],"feature_types":["float","float","float","float","float","float","float","float","float","float"],"gradient_booster":{"model":{"gbtree_model_param":{"num_parallel_tree":"1","num_trees":"85","size_leaf_vector":"0"},"tree_info":[0,0,0,0,0,0,0,0,0,0,0,0,0,0,0,0,0,0,0,0,0,0,0,0,0,0,0,0,0,0,0,0,0,0,0,0,0,0,0,0,0,0,0,0,0,0,0,0,0,0,0,0,0,0,0,0,0,0,0,0,0,0,0,0,0,0,0,0,0,0,0,0,0,0,0,0,0,0,0,0,0,0,0,0,0],"trees":[{"base_weights":[-4.9159747E-1,-5.2263546E-1,-4.7817665E-1,-5.102807E-1,-6.3694686E-1,-3.6103407E-1,-4.8491448E-1,-4.800626E-1,-5.2217644E-1,-5.555818E-1,-6.733667E-1,-3.8266397E-1,-2.0926602E-1,-4.5228258E-1,-4.9252135E-1],"categories":[],"categories_nodes":[],"categories_segments":[],"categories_sizes":[],"default_left":[1,1,1,1,1,1,1,0,0,0,0,0,0,0,0],"id":0,"left_children":[1,3,5,7,9,11,13,-1,-1,-1,-1,-1,-1,-1,-1],"loss_changes":[4.5589844E1,4.657422E1,6.0470703E1,1.0524414E1,9.212158E0,1.3651611E1,1.7810547E1,0E0,0E0,0E0,0E0,0E0,0E0,0E0,0E0],"parents":[2147483647,0,0,1,1,2,2,3,3,4,4,5,5,6,6],"right_children":[2,4,6,8,10,12,14,-1,-1,-1,-1,-1,-1,-1,-1],"split_conditions":[-4.4264507E-1,1.7673647E0,-1.9125118E0,-2.1234185E-1,7.7537763E-1,-5.92137E-1,-9.049568E-1,-4.8006263E-2,-5.2217644E-2,-5.5558182E-2,-6.733667E-2,-3.8266398E-2,-2.0926602E-2,-4.5228258E-2,-4.9252134E-2],"split_indices":[9,5,7,1,0,2,7,0,0,0,0,0,0,0,0],"split_type":[0,0,0,0,0,0,0,0,0,0,0,0,0,0,0],"sum_hessian":[1.10042E5,3.3207E4,7.6835E4,2.9973E4,3.234E3,4.182E3,7.2653E4,8.478E3,2.1495E4,1.005E3,2.229E3,3.659E3,5.23E2,1.3746E4,5.8907E4],"tree_param":{"num_deleted":"0","num_feature":"10","num_nodes":"15","size_leaf_vector":"0"}},{"base_weights":[-4.4427642E-1,-4.0833157E-1,-4.5902172E-1,-3.5749993E-1,-4.1980955E-1,-4.400165E-1,-4.9033305E-1,-4.1462043E-1,-3.0043235E-1,-4.252508E-1,-2.8567997E-1,-4.148128E-1,-4.5477462E-1,-5.452789E-1,-4.635028E-1],"categories":[],"categories_nodes":[],"categories_segments":[],"categories_sizes":[],"default_left":[1,1,1,1,1,1,1,0,0,0,0,0,0,0,0],"id":1,"left_children":[1,3,5,7,9,11,13,-1,-1,-1,-1,-1,-1,-1,-1],"loss_changes":[5.8128906E1,1.852832E1,4.620703E1,1.912091E1,1.8935547E1,1.787207E1,4.317334E1,0E0,0E0,0E0,0E0,0E0,0E0,0E0,0E0],"parents":[2147483647,0,0,1,1,2,2,3,3,4,4,5,5,6,6],"right_children":[2,4,6,8,10,12,14,-1,-1,-1,-1,-1,-1,-1,-1],"split_conditions":[-4.6522868E-1,-1.6457186E0,2.556376E-1,3.1223264E-1,1.624316E0,-3.3694822E-1,-5.977729E-1,-4.1462045E-2,-3.0043235E-2,-4.252508E-2,-2.8567998E-2,-4.1481283E-2,-4.547746E-2,-5.452789E-2,-4.635028E-2],"split_indices":[0,7,5,3,3,3,9,0,0,0,0,0,0,0,0],"split_type":[0,0,0,0,0,0,0,0,0,0,0,0,0,0,0],"sum_hessian":[1.10023E5,3.2013E4,7.801E4,5.903E3,2.611E4,4.8554E4,2.9456E4,2.947E3,2.956E3,2.509E4,1.02E3,1.7942E4,3.0612E4,9.658E3,1.9798E4],"tree_param":{"num_deleted":"0","num_feature":"10","num_nodes":"15","size_leaf_vector":"0"}},{"base_weights":[-3.9351687E-1,-3.0220237E-1,-3.9910817E-1,-2.813302E-1,-3.495527E-1,-3.9016804E-1,-4.18538E-1,-5.1112705E-1,-2.6815987E-1,-4.0663365E-1,-2.8462315E-1,-3.9410332E-1,-3.3844608E-1,-3.9428914E-1,-4.3615127E-1],"categories":[],"categories_nodes":[],"categories_segments":[],"categories_sizes":[],"default_left":[1,1,1,1,1,1,1,0,0,0,0,0,0,0,0],"id":2,"left_children":[1,3,5,7,9,11,13,-1,-1,-1,-1,-1,-1,-1,-1],"loss_changes":[5.6015625E1,6.175415E0,1.7832031E1,1.321283E1,7.0669556E0,1.43125E1,1.3765625E1,0E0,0E0,0E0,0E0,0E0,0E0,0E0,0E0],"parents":[2147483647,0,0,1,1,2,2,3,3,4,4,5,5,6,6],"right_children":[2,4,6,8,10,12,14,-1,-1,-1,-1,-1,-1,-1,-1],"split_conditions":[-1.6456637E0,-4.6866554E-1,4.4989878E-1,-1.5315167E0,2.053269E0,7.8010345E-1,1.4932308E-1,-5.1112708E-2,-2.6815986E-2,-4.0663365E-2,-2.8462315E-2,-3.9410334E-2,-3.384461E-2,-3.9428916E-2,-4.361513E-2],"split_indices":[7,6,0,2,1,1,1,0,0,0,0,0,0,0,0],"split_type":[0,0,0,0,0,0,0,0,0,0,0,0,0,0,0],"sum_hessian":[1.09948E5,6.347E3,1.03601E5,4.41E3,1.937E3,7.0968E4,3.2633E4,2.37E2,4.173E3,1.028E3,9.09E2,6.5944E4,5.024E3,1.374E4,1.8893E4],"tree_param":{"num_deleted":"0","num_feature":"10","num_nodes":"15","size_leaf_vector":"0"}},{"base_weights":[-3.6352208E-1,-3.1339663E-1,-3.724011E-1,-3.1076702E-1,-5.038373E-1,-3.5062763E-1,-3.8608974E-1,-3.3719948E-1,-2.925517E-1,-2.48261E-1,-6.2005585E-1,-3.7694958E-1,-3.396153E-1,-3.4782198E-1,-4.0375027E-1],"categories":[],"categories_nodes":[],"categories_segments":[],"categories_sizes":[],"default_left":[1,1,1,1,1,1,1,0,0,0,0,0,0,0,0],"id":3,"left_children":[1,3,5,7,9,11,13,-1,-1,-1,-1,-1,-1,-1,-1],"loss_changes":[4.907422E1,8.175537E0,2.7847656E1,7.8043213E0,6.529167E0,1.0380371E1,3.8811523E1,0E0,0E0,0E0,0E0,0E0,0E0,0E0,0E0],"parents":[2147483647,0,0,1,1,2,2,3,3,4,4,5,5,6,6],"right_children":[2,4,6,8,10,12,14,-1,-1,-1,-1,-1,-1,-1,-1],"split_conditions":[-9.805752E-1,6.4482045E-1,-2.7497092E-1,-3.2802084E-1,-9.722189E-1,-6.7327344E-1,-2.084704E-1,-3.371995E-2,-2.925517E-2,-2.48261E-2,-6.2005587E-2,-3.7694957E-2,-3.396153E-2,-3.4782197E-2,-4.0375028E-2],"split_indices":[7,0,5,4,6,8,0,0,0,0,0,0,0,0,0],"split_type":[0,0,0,0,0,0,0,0,0,0,0,0,0,0,0],"sum_hessian":[1.10523E5,1.6637E4,9.3886E4,1.6413E4,2.24E2,3.6251E4,5.7635E4,6.689E3,9.724E3,7.1E1,1.53E2,1.0683E4,2.5568E4,1.8206E4,3.9429E4],"tree_param":{"num_deleted":"0","num_feature":"10","num_nodes":"15","size_leaf_vector":"0"}},{"base_weights":[-3.2560575E-1,-3.5423866E-1,-3.1825992E-1,-3.5066706E-1,-7.1537507E-1,-2.8185973E-1,-3.2675195E-1,-3.086814E-1,-3.7916675E-1,-9.28213E-1,-5.707715E-1,-3.0467078E-1,-2.5456572E-1,-3.1876117E-1,-3.528542E-1],"categories":[],"categories_nodes":[],"categories_segments":[],"categories_sizes":[],"default_left":[1,1,1,1,1,1,1,0,0,0,0,0,0,0,0],"id":4,"left_children":[1,3,5,7,9,11,13,-1,-1,-1,-1,-1,-1,-1,-1],"loss_changes":[2.3036133E1,2.871997E1,2.6984375E1,2.6498535E1,6.2104034E0,1.0243408E1,1.4699707E1,0E0,0E0,0E0,0E0,0E0,0E0,0E0,0E0],"parents":[2147483647,0,0,1,1,2,2,3,3,4,4,5,5,6,6],"right_children":[2,4,6,8,10,12,14,-1,-1,-1,-1,-1,-1,-1,-1],"split_conditions":[-7.823601E-1,1.63953E0,-9.8057026E-1,-3.976058E-1,1.7976661E0,5.7958268E-2,9.623313E-1,-3.0868141E-2,-3.7916675E-2,-9.28213E-2,-5.707715E-2,-3.0467078E-2,-2.5456572E-2,-3.1876117E-2,-3.528542E-2],"split_indices":[9,6,7,5,6,4,4,0,0,0,0,0,0,0,0],"split_type":[0,0,0,0,0,0,0,0,0,0,0,0,0,0,0],"sum_hessian":[1.10053E5,2.246E4,8.7593E4,2.2242E4,2.18E2,1.6576E4,7.1017E4,8.998E3,1.3244E4,8.6E1,1.32E2,9.024E3,7.552E3,5.4382E4,1.6635E4],"tree_param":{"num_deleted":"0","num_feature":"10","num_nodes":"15","size_leaf_vector":"0"}},{"base_weights":[-2.9360825E-1,-2.847729E-1,-3.4238002E-1,-2.2472523E-1,-2.8892028E-1,-3.4320238E-1,1.8376078E-1,-2.7632758E-1,-1.8255189E-1,-2.9260027E-1,-2.5927955E-1,-3.2195055E-1,-3.7677386E-1,3.4617853E-1,-1.2309741E0],"categories":[],"categories_nodes":[],"categories_segments":[],"categories_sizes":[],"default_left":[1,1,1,1,1,1,1,0,0,0,0,0,0,0,0],"id":5,"left_children":[1,3,5,7,9,11,13,-1,-1,-1,-1,-1,-1,-1,-1],"loss_changes":[4.7353516E1,2.3153809E1,7.368408E0,1.3067932E1,9.437012E0,1.1906128E1,6.630144E0,0E0,0E0,0E0,0E0,0E0,0E0,0E0,0E0],"parents":[2147483647,0,0,1,1,2,2,3,3,4,4,5,5,6,6],"right_children":[2,4,6,8,10,12,14,-1,-1,-1,-1,-1,-1,-1,-1],"split_conditions":[9.7824323E-1,-1.6852889E0,6.5919876E-1,2.089881E-1,7.8915656E-1,9.8272926E-1,7.701466E-1,-2.7632758E-2,-1.8255189E-2,-2.9260028E-2,-2.5927955E-2,-3.2195058E-2,-3.767739E-2,3.4617852E-2,-1.2309741E-1],"split_indices":[7,7,4,3,2,5,4,0,0,0,0,0,0,0,0],"split_type":[0,0,0,0,0,0,0,0,0,0,0,0,0,0,0],"sum_hessian":[1.10116E5,9.3233E4,1.6883E4,6.027E3,8.7206E4,1.6857E4,2.6E1,2.708E3,3.319E3,7.7567E4,9.639E3,1.0329E4,6.528E3,2.4E1,2E0],"tree_param":{"num_deleted":"0","num_feature":"10","num_nodes":"15","size_leaf_vector":"0"}},{"base_weights":[-2.6124066E-1,-2.2263235E-1,-2.6842216E-1,-2.2566174E-1,-4.717932E-2,-2.3112378E-1,-2.7385518E-1,-2.2408284E-1,-6.3387036E-1,-6.737259E-2,5.350661E-1,-2.4546437E-1,-1.9504625E-1,-2.6205245E-1,-2.950694E-1],"categories":[],"categories_nodes":[],"categories_segments":[],"categories_sizes":[],"default_left":[1,1,1,1,1,1,1,0,0,0,0,0,0,0,0],"id":6,"left_children":[1,3,5,7,9,11,13,-1,-1,-1,-1,-1,-1,-1,-1],"loss_changes":[3.0524902E1,9.187744E0,1.8782715E1,1.0822571E1,3.5044932E0,6.07312E0,2.0246582E1,0E0,0E0,0E0,0E0,0E0,0E0,0E0,0E0],"parents":[2147483647,0,0,1,1,2,2,3,3,4,4,5,5,6,6],"right_children":[2,4,6,8,10,12,14,-1,-1,-1,-1,-1,-1,-1,-1],"split_conditions":[-9.502145E-1,-9.6280825E-1,-9.345478E-1,-3.8929453E-1,9.761692E-1,2.3010209E-1,4.4138923E-1,-2.2408284E-2,-6.338704E-2,-6.737259E-3,5.3506613E-2,-2.4546437E-2,-1.9504625E-2,-2.6205245E-2,-2.950694E-2],"split_indices":[0,0,1,2,9,8,5,0,0,0,0,0,0,0,0],"split_type":[0,0,0,0,0,0,0,0,0,0,0,0,0,0,0],"sum_hessian":[1.10306E5,1.7305E4,9.3001E4,1.7011E4,2.94E2,1.183E4,8.1171E4,1.6947E4,6.4E1,2.85E2,9E0,8.461E3,3.369E3,5.2163E4,2.9008E4],"tree_param":{"num_deleted":"0","num_feature":"10","num_nodes":"15","size_leaf_vector":"0"}},{"base_weights":[-2.372242E-1,-1.6854323E-1,-2.4077688E-1,-2.2371945E-1,-1.2601997E-1,-2.3345873E-1,-2.6057753E-1,-1.4084412E-1,-2.6845264E-1,-4.6237084E-1,-1.1718572E-1,-4.1403553E-1,-2.3234762E-1,-2.895242E-1,-2.4941054E-1],"categories":[],"categories_nodes":[],"categories_segments":[],"categories_sizes":[],"default_left":[1,1,1,1,1,1,1,0,0,0,0,0,0,0,0],"id":7,"left_children":[1,3,5,7,9,11,13,-1,-1,-1,-1,-1,-1,-1,-1],"loss_changes":[2.68125E1,1.26792145E1,1.51015625E1,8.696548E0,9.04129E0,1.5234863E1,9.052368E0,0E0,0E0,0E0,0E0,0E0,0E0,0E0,0E0],"parents":[2147483647,0,0,1,1,2,2,3,3,4,4,5,5,6,6],"right_children":[2,4,6,8,10,12,14,-1,-1,-1,-1,-1,-1,-1,-1],"split_conditions":[-1.7500372E0,-4.3455777E-1,5.5906594E-1,1.217258E0,-3.330037E-1,-1.6233048E0,7.494357E-1,-1.4084413E-2,-2.6845265E-2,-4.6237085E-2,-1.1718572E-2,-4.1403554E-2,-2.3234762E-2,-2.895242E-2,-2.4941055E-2],"split_indices":[7,4,7,1,9,9,8,0,0,0,0,0,0,0,0],"split_type":[0,0,0,0,0,0,0,0,0,0,0,0,0,0,0],"sum_hessian":[1.1005E5,5.415E3,1.04635E5,2.355E3,3.06E3,7.6408E4,2.8227E4,8.27E2,1.528E3,7.7E1,2.983E3,4.65E2,7.5943E4,7.851E3,2.0376E4],"tree_param":{"num_deleted":"0","num_feature":"10","num_nodes":"15","size_leaf_vector":"0"}},{"base_weights":[-2.1162695E-1,-1.413779E-1,-2.147332E-1,-1.4369103E-1,7.663562E-1,-2.0875397E-1,-2.4184299E-1,-2.2414769E-1,-1.24629945E-1,1.4606541E-1,9.5689034E-1,-2.3743717E-1,-2.0607232E-1,-5.902149E-2,-2.4491845E-1],"categories":[],"categories_nodes":[],"categories_segments":[],"categories_sizes":[],"default_left":[1,1,1,1,1,1,1,0,0,0,0,0,0,0,0],"id":8,"left_children":[1,3,5,7,9,11,13,-1,-1,-1,-1,-1,-1,-1,-1],"loss_changes":[2.396289E1,9.892654E0,1.7017578E1,7.100197E0,1.2784696E0,6.5874023E0,1.0680298E1,0E0,0E0,0E0,0E0,0E0,0E0,0E0,0E0],"parents":[2147483647,0,0,1,1,2,2,3,3,4,4,5,5,6,6],"right_children":[2,4,6,8,10,12,14,-1,-1,-1,-1,-1,-1,-1,-1],"split_conditions":[-1.8602331E0,-1.8615752E0,8.9295936E-1,-8.688426E-1,-1.2030294E0,-1.1477504E0,-2.058979E-1,-2.241477E-2,-1.2462995E-2,1.4606542E-2,9.5689036E-2,-2.3743717E-2,-2.0607231E-2,-5.9021492E-3,-2.4491845E-2],"split_indices":[7,7,7,4,2,2,2,0,0,0,0,0,0,0,0],"split_type":[0,0,0,0,0,0,0,0,0,0,0,0,0,0,0],"sum_hessian":[1.09954E5,4.658E3,1.05296E5,4.647E3,1.1E1,8.6276E4,1.902E4,8.88E2,3.759E3,3E0,8E0,7.369E3,7.8907E4,3.15E2,1.8705E4],"tree_param":{"num_deleted":"0","num_feature":"10","num_nodes":"15","size_leaf_vector":"0"}},{"base_weights":[-1.9217506E-1,-1.8250066E-1,-2.1200831E-1,-2.3838893E-1,-1.80246E-1,-1.8710847E-1,-2.4840696E-1,-2.3633349E-1,-1.3668308E0,-7.6971054E-2,-1.8221816E-1,-7.900065E-1,-1.8667728E-1,-2.3718865E-1,-3.138656E-1],"categories":[],"categories_nodes":[],"categories_segments":[],"categories_sizes":[],"default_left":[1,1,1,1,1,1,1,0,0,0,0,0,0,0,0],"id":9,"left_children":[1,3,5,7,9,11,13,-1,-1,-1,-1,-1,-1,-1,-1],"loss_changes":[2.1072998E1,9.276855E0,3.26427E1,6.322159E0,1.4467041E1,5.4212646E0,1.0682068E1,0E0,0E0,0E0,0E0,0E0,0E0,0E0,0E0],"parents":[2147483647,0,0,1,1,2,2,3,3,4,4,5,5,6,6],"right_children":[2,4,6,8,10,12,14,-1,-1,-1,-1,-1,-1,-1,-1],"split_conditions":[4.0890506E-1,-1.336212E0,1.6492194E-1,-9.93234E-1,-1.2633773E0,-5.920139E-1,2.0954428E0,-2.363335E-2,-1.3668309E-1,-7.6971054E-3,-1.8221816E-2,-7.900065E-2,-1.8667728E-2,-2.3718866E-2,-3.138656E-2],"split_indices":[5,8,2,6,8,6,7,0,0,0,0,0,0,0,0],"split_type":[0,0,0,0,0,0,0,0,0,0,0,0,0,0,0],"sum_hessian":[1.10028E5,7.3961E4,3.6067E4,2.864E3,7.1097E4,2.142E4,1.4647E4,2.86E3,4E0,1.333E3,6.9764E4,1.4E1,2.1406E4,1.2508E4,2.139E3],"tree_param":{"num_deleted":"0","num_feature":"10","num_nodes":"15","size_leaf_vector":"0"}},{"base_weights":[-1.7132181E-1,-1.5621199E-1,-1.7936543E-1,-1.6719443E-1,-1.0666459E-1,-1.6823547E-1,-1.9020547E-1,-1.6670369E-1,-9.695221E-1,-2.138688E-1,-9.746238E-2,-1.5453818E-1,-1.940212E-1,-1.8493645E-1,-2.4638401E-1],"categories":[],"categories_nodes":[],"categories_segments":[],"categories_sizes":[],"default_left":[1,1,1,1,1,1,1,0,0,0,0,0,0,0,0],"id":10,"left_children":[1,3,5,7,9,11,13,-1,-1,-1,-1,-1,-1,-1,-1],"loss_changes":[1.3399658E1,2.0871643E1,8.6657715E0,1.221051E1,6.853195E0,1.2536255E1,1.0762817E1,0E0,0E0,0E0,0E0,0E0,0E0,0E0,0E0],"parents":[2147483647,0,0,1,1,2,2,3,3,4,4,5,5,6,6],"right_children":[2,4,6,8,10,12,14,-1,-1,-1,-1,-1,-1,-1,-1],"split_conditions":[-4.0205303E-1,5.150093E-1,-2.0227175E-2,5.137867E-1,-9.653707E-1,9.4181854E-1,1.2331781E0,-1.6670369E-2,-9.6952215E-2,-2.138688E-2,-9.746238E-3,-1.5453818E-2,-1.940212E-2,-1.8493645E-2,-2.4638401E-2],"split_indices":[2,3,5,3,6,4,8,0,0,0,0,0,0,0,0],"split_type":[0,0,0,0,0,0,0,0,0,0,0,0,0,0,0],"sum_hessian":[1.10479E5,3.8388E4,7.2091E4,3.1421E4,6.967E3,3.5578E4,3.6513E4,3.1403E4,1.8E1,5.49E2,6.418E3,2.324E4,1.2338E4,3.3386E4,3.127E3],"tree_param":{"num_deleted":"0","num_feature":"10","num_nodes":"15","size_leaf_vector":"0"}},{"base_weights":[-1.5673052E-1,-1.5945889E-1,-1.0596587E-1,-1.5769815E-1,-2.4184315E-1,-1.0080659E-1,-3.6432683E-1,-1.20491944E-1,-1.6055287E-1,-1.3409774E-1,-2.7451643E-1,-8.290527E-2,-1.7541552E-1,-4.9701694E-1,1.5919739E-1],"categories":[],"categories_nodes":[],"categories_segments":[],"categories_sizes":[],"default_left":[1,1,1,1,1,1,1,0,0,0,0,0,0,0,0],"id":11,"left_children":[1,3,5,7,9,11,13,-1,-1,-1,-1,-1,-1,-1,-1],"loss_changes":[1.5285645E1,1.5169922E1,7.478485E0,1.0883789E1,7.679901E0,7.36998E0,7.720437E0,0E0,0E0,0E0,0E0,0E0,0E0,0E0,0E0],"parents":[2147483647,0,0,1,1,2,2,3,3,4,4,5,5,6,6],"right_children":[2,4,6,8,10,12,14,-1,-1,-1,-1,-1,-1,-1,-1],"split_conditions":[1.9088469E0,2.9023476E0,6.646548E-1,-1.0543423E0,-5.182616E-1,7.579152E-2,-1.9694374E0,-1.2049194E-2,-1.6055288E-2,-1.3409774E-2,-2.7451644E-2,-8.290527E-3,-1.7541552E-2,-4.9701694E-2,1.591974E-2],"split_indices":[9,1,4,1,5,6,0,0,0,0,0,0,0,0,0],"split_type":[0,0,0,0,0,0,0,0,0,0,0,0,0,0,0],"sum_hessian":[1.1048E5,1.04843E5,5.637E3,1.02652E5,2.191E3,5.528E3,1.09E2,7.318E3,9.5334E4,5.11E2,1.68E3,4.46E3,1.068E3,8.7E1,2.2E1],"tree_param":{"num_deleted":"0","num_feature":"10","num_nodes":"15","size_leaf_vector":"0"}},{"base_weights":[-1.3787396E-1,-1.348843E-1,-2.1044263E-1,-1.0499396E-1,-1.39849E-1,1.382807E-1,-2.1608238E-1,-1.0854706E-1,1.3557555E-1,-1.427833E-1,-1.0672313E-1,-1.7420055E-1,4.5573914E-1,-1.6779397E-1,-2.4430461E-1],"categories":[],"categories_nodes":[],"categories_segments":[],"categories_sizes":[],"default_left":[1,1,1,1,1,1,1,0,0,0,0,0,0,0,0],"id":12,"left_children":[1,3,5,7,9,11,13,-1,-1,-1,-1,-1,-1,-1,-1],"loss_changes":[2.3888184E1,1.56970215E1,8.604767E0,1.29088745E1,8.810059E0,7.0233765E0,5.8068085E0,0E0,0E0,0E0,0E0,0E0,0E0,0E0,0E0],"parents":[2147483647,0,0,1,1,2,2,3,3,4,4,5,5,6,6],"right_children":[2,4,6,8,10,12,14,-1,-1,-1,-1,-1,-1,-1,-1],"split_conditions":[2.104627E0,-1.0641003E0,4.7484506E-2,-5.302944E-1,1.0992817E0,2.9017625E0,-6.4597666E-1,-1.0854706E-2,1.3557555E-2,-1.427833E-2,-1.0672313E-2,-1.7420055E-2,4.5573916E-2,-1.6779399E-2,-2.4430461E-2],"split_indices":[7,0,0,2,2,6,6,0,0,0,0,0,0,0,0],"split_type":[0,0,0,0,0,0,0,0,0,0,0,0,0,0,0],"sum_hessian":[1.10235E5,1.05876E5,4.359E3,1.5084E4,9.0792E4,6.9E1,4.29E3,1.4865E4,2.19E2,8.3401E4,7.391E3,3.5E1,3.4E1,1.585E3,2.705E3],"tree_param":{"num_deleted":"0","num_feature":"10","num_nodes":"15","size_leaf_vector":"0"}},{"base_weights":[-1.2671526E-1,-1.2131185E-1,-1.486339E-1,-7.2121315E-2,-1.2376826E-1,-1.1879478E-1,-1.842E-1,-7.618033E-2,6.147899E-1,-2.910072E-1,-1.2311741E-1,-1.3603345E-1,-6.96421E-2,-1.0006781E0,-1.8303806E-1],"categories":[],"categories_nodes":[],"categories_segments":[],"categories_sizes":[],"default_left":[1,1,1,1,1,1,1,0,0,0,0,0,0,0,0],"id":13,"left_children":[1,3,5,7,9,11,13,-1,-1,-1,-1,-1,-1,-1,-1],"loss_changes":[1.3125488E1,1.07491455E1,2.326538E1,1.1860384E1,9.194336E0,1.0103378E1,9.3124695E0,0E0,0E0,0E0,0E0,0E0,0E0,0E0,0E0],"parents":[2147483647,0,0,1,1,2,2,3,3,4,4,5,5,6,6],"right_children":[2,4,6,8,10,12,14,-1,-1,-1,-1,-1,-1,-1,-1],"split_conditions":[8.2780135E-1,-1.9134645E0,-6.870967E-2,3.0929E-1,-1.8643601E0,9.9091214E-1,2.5461984E-1,-7.6180333E-3,6.147899E-2,-2.910072E-2,-1.2311741E-2,-1.3603345E-2,-6.96421E-3,-1.0006781E-1,-1.8303806E-2],"split_indices":[0,7,5,6,7,3,2,0,0,0,0,0,0,0,0],"split_type":[0,0,0,0,0,0,0,0,0,0,0,0,0,0,0],"sum_hessian":[1.10975E5,8.9033E4,2.1942E4,4.236E3,8.4797E4,1.1934E4,1.0008E4,4.212E3,2.4E1,3.27E2,8.447E4,8.834E3,3.1E3,1.3E1,9.995E3],"tree_param":{"num_deleted":"0","num_feature":"10","num_nodes":"15","size_leaf_vector":"0"}},{"base_weights":[-1.1078083E-1,-1.02545075E-1,-1.2581916E-1,-1.740191E-1,-9.963969E-2,-1.2087455E-1,-2.0436323E-1,-2.326882E-1,-1.5355343E-1,-7.147992E-2,-1.0630297E-1,6.904848E-1,-1.2115616E-1,-2.1655568E-1,4.605858E-2],"categories":[],"categories_nodes":[],"categories_segments":[],"categories_sizes":[],"default_left":[1,1,1,1,1,1,1,0,0,0,0,0,0,0,0],"id":14,"left_children":[1,3,5,7,9,11,13,-1,-1,-1,-1,-1,-1,-1,-1],"loss_changes":[1.3766846E1,1.49123535E1,1.5263916E1,3.3346405E0,1.2956055E1,8.546265E0,7.124054E0,0E0,0E0,0E0,0E0,0E0,0E0,0E0,0E0],"parents":[2147483647,0,0,1,1,2,2,3,3,4,4,5,5,6,6],"right_children":[2,4,6,8,10,12,14,-1,-1,-1,-1,-1,-1,-1,-1],"split_conditions":[3.2118458E-1,-1.3430393E0,1.8941995E0,-1.641592E0,-8.7328374E-1,-1.8337095E0,1.3553631E0,-2.326882E-2,-1.5355343E-2,-7.1479916E-3,-1.06302975E-2,6.904849E-2,-1.2115616E-2,-2.1655569E-2,4.605858E-3],"split_indices":[5,8,0,7,7,9,2,0,0,0,0,0,0,0,0],"split_type":[0,0,0,0,0,0,0,0,0,0,0,0,0,0,0],"sum_hessian":[1.11259E5,7.1894E4,3.9365E4,2.806E3,6.9088E4,3.7036E4,2.329E3,7.23E2,2.083E3,1.3222E4,5.5866E4,1.2E1,3.7024E4,2.221E3,1.08E2],"tree_param":{"num_deleted":"0","num_feature":"10","num_nodes":"15","size_leaf_vector":"0"}},{"base_weights":[-1.0696103E-1,-5.5774108E-2,-1.09128535E-1,-6.640845E-2,8.097059E-2,-4.054373E-1,-1.0875189E-1,-6.288372E-2,-6.7136383E-1,1.6310258E-1,-3.946863E-1,-2.8715608E-1,-7.8917307E-1,-8.431417E-2,-1.1192455E-1],"categories":[],"categories_nodes":[],"categories_segments":[],"categories_sizes":[],"default_left":[1,1,1,1,1,1,1,0,0,0,0,0,0,0,0],"id":15,"left_children":[1,3,5,7,9,11,13,-1,-1,-1,-1,-1,-1,-1,-1],"loss_changes":[1.2234375E1,6.5259657E0,1.1768188E1,8.830303E0,1.2721969E1,5.8554745E0,8.186523E0,0E0,0E0,0E0,0E0,0E0,0E0,0E0,0E0],"parents":[2147483647,0,0,1,1,2,2,3,3,4,4,5,5,6,6],"right_children":[2,4,6,8,10,12,14,-1,-1,-1,-1,-1,-1,-1,-1],"split_conditions":[-1.8806195E0,1.9146444E0,-2.9561818E0,1.8510671E0,1.2319191E-1,-9.055506E-1,-9.280831E-1,-6.288372E-3,-6.7136385E-2,1.6310258E-2,-3.946863E-2,-2.8715609E-2,-7.891731E-2,-8.431417E-3,-1.1192455E-2],"split_indices":[7,4,0,4,2,2,1,0,0,0,0,0,0,0,0],"split_type":[0,0,0,0,0,0,0,0,0,0,0,0,0,0,0],"sum_hessian":[1.10325E5,4.483E3,1.05842E5,4.16E3,3.23E2,1.33E2,1.05709E5,4.137E3,2.3E1,2.76E2,4.7E1,1.03E2,3E1,1.215E4,9.3559E4],"tree_param":{"num_deleted":"0","num_feature":"10","num_nodes":"15","size_leaf_vector":"0"}},{"base_weights":[-9.0873964E-2,-8.786181E-2,-1.2492356E-1,-7.204863E-2,-9.265812E-2,-1.1769989E-1,-3.6506754E-1,-8.6188756E-2,-3.1794738E-2,-9.379849E-2,4.1589715E-2,-3.6468202E-1,-1.1157332E-1,-5.063425E-1,-7.170175E-2],"categories":[],"categories_nodes":[],"categories_segments":[],"categories_sizes":[],"default_left":[1,1,1,1,1,1,1,0,0,0,0,0,0,0,0],"id":16,"left_children":[1,3,5,7,9,11,13,-1,-1,-1,-1,-1,-1,-1,-1],"loss_changes":[1.1291382E1,7.6723633E0,1.5489716E1,1.3411484E1,1.1896301E1,1.3114655E1,1.0780903E1,0E0,0E0,0E0,0E0,0E0,0E0,0E0,0E0],"parents":[2147483647,0,0,1,1,2,2,3,3,4,4,5,5,6,6],"right_children":[2,4,6,8,10,12,14,-1,-1,-1,-1,-1,-1,-1,-1],"split_conditions":[2.0141983E0,-6.321878E-1,9.2177635E-1,3.4928915E-1,1.8957038E0,2.0460436E0,-1.3928688E-1,-8.618875E-3,-3.1794738E-3,-9.379849E-3,4.1589714E-3,-3.6468204E-2,-1.1157333E-2,-5.0634246E-2,-7.170175E-3],"split_indices":[5,0,2,3,5,5,3,0,0,0,0,0,0,0,0],"split_type":[0,0,0,0,0,0,0,0,0,0,0,0,0,0,0],"sum_hessian":[1.10199E5,1.01246E5,8.953E3,2.3566E4,7.768E4,8.693E3,2.6E2,1.7439E4,6.127E3,7.7026E4,6.54E2,2.09E2,8.484E3,1.75E2,8.5E1],"tree_param":{"num_deleted":"0","num_feature":"10","num_nodes":"15","size_leaf_vector":"0"}},{"base_weights":[-7.8673005E-2,-8.845617E-2,-6.882927E-2,-1.3578121E-1,-8.567914E-2,-5.5700213E-2,-8.15977E-2,-5.4400843E-2,-1.7466766E-1,3.3697438E-1,-8.6128786E-2,-5.6403365E-2,4.362036E-1,-7.9863526E-2,-2.9346514E-1],"categories":[],"categories_nodes":[],"categories_segments":[],"categories_sizes":[],"default_left":[1,1,1,1,1,1,1,0,0,0,0,0,0,0,0],"id":17,"left_children":[1,3,5,7,9,11,13,-1,-1,-1,-1,-1,-1,-1,-1],"loss_changes":[1.066687E1,7.2929993E0,9.256897E0,9.73428E0,1.0006836E1,9.447151E0,1.0266434E1,0E0,0E0,0E0,0E0,0E0,0E0,0E0,0E0],"parents":[2147483647,0,0,1,1,2,2,3,3,4,4,5,5,6,6],"right_children":[2,4,6,8,10,12,14,-1,-1,-1,-1,-1,-1,-1,-1],"split_conditions":[-1.6742007E-1,-1.2025161E0,9.591168E-2,-1.3977566E0,-1.1957376E0,9.284261E-2,2.456501E0,-5.4400843E-3,-1.7466767E-2,3.3697437E-2,-8.612879E-3,-5.640337E-3,4.362036E-2,-7.986353E-3,-2.9346514E-2],"split_indices":[1,2,2,2,2,2,6,0,0,0,0,0,0,0,0],"split_type":[0,0,0,0,0,0,0,0,0,0,0,0,0,0,0],"sum_hessian":[1.10826E5,5.558E4,5.5246E4,3.078E3,5.2502E4,2.7241E4,2.8005E4,9.96E2,2.082E3,5.5E1,5.2447E4,2.7203E4,3.8E1,2.7779E4,2.26E2],"tree_param":{"num_deleted":"0","num_feature":"10","num_nodes":"15","size_leaf_vector":"0"}},{"base_weights":[-7.32071E-2,-7.01125E-2,-9.243979E-2,-7.110647E-2,1.8148357E-2,-8.648039E-2,-2.2208992E-1,-7.158773E-2,6.481056E-2,1.0957968E-2,1.1002771E0,-1.07776806E-1,-5.725919E-2,-1.0753318E-1,-3.6851335E-1],"categories":[],"categories_nodes":[],"categories_segments":[],"categories_sizes":[],"default_left":[1,1,1,1,1,1,1,0,0,0,0,0,0,0,0],"id":18,"left_children":[1,3,5,7,9,11,13,-1,-1,-1,-1,-1,-1,-1,-1],"loss_changes":[6.5773315E0,8.3611145E0,1.1824554E1,6.1683655E0,8.2512865E0,9.114975E0,1.1249134E1,0E0,0E0,0E0,0E0,0E0,0E0,0E0,0E0],"parents":[2147483647,0,0,1,1,2,2,3,3,4,4,5,5,6,6],"right_children":[2,4,6,8,10,12,14,-1,-1,-1,-1,-1,-1,-1,-1],"split_conditions":[1.3733518E0,2.3687117E0,1.2939199E0,1.3479877E0,-5.555724E-1,9.253552E-1,2.3934047E0,-7.1587726E-3,6.481056E-3,1.0957968E-3,1.1002771E-1,-1.0777681E-2,-5.7259193E-3,-1.0753318E-2,-3.6851335E-2],"split_indices":[5,6,8,5,1,1,5,0,0,0,0,0,0,0,0],"split_type":[0,0,0,0,0,0,0,0,0,0,0,0,0,0,0],"sum_hessian":[1.10619E5,9.5291E4,1.5328E4,9.423E4,1.061E3,1.4656E4,6.72E2,9.3898E4,3.32E2,1.055E3,6E0,8.476E3,6.18E3,3.78E2,2.94E2],"tree_param":{"num_deleted":"0","num_feature":"10","num_nodes":"15","size_leaf_vector":"0"}},{"base_weights":[-6.620168E-2,-5.9706412E-2,-7.772185E-2,-1.9232996E-2,-6.231322E-2,-6.517586E-2,-1.2559466E-1,-1.2081135E-1,4.64687E-4,-7.013666E-2,-4.777274E-2,-8.609689E-2,-4.8561785E-2,-1.2879302E-1,3.3773378E-1],"categories":[],"categories_nodes":[],"categories_segments":[],"categories_sizes":[],"default_left":[1,1,1,1,1,1,1,0,0,0,0,0,0,0,0],"id":19,"left_children":[1,3,5,7,9,11,13,-1,-1,-1,-1,-1,-1,-1,-1],"loss_changes":[8.266754E0,7.4571686E0,2.3926788E1,8.5617285E0,7.551544E0,1.0971802E1,1.2304657E1,0E0,0E0,0E0,0E0,0E0,0E0,0E0,0E0],"parents":[2147483647,0,0,1,1,2,2,3,3,4,4,5,5,6,6],"right_children":[2,4,6,8,10,12,14,-1,-1,-1,-1,-1,-1,-1,-1],"split_conditions":[2.969846E-1,-1.711761E0,5.533477E-1,-1.3359964E0,1.9271654E-1,-1.0018279E-1,1.4154615E0,-1.2081135E-2,4.64687E-5,-7.013666E-3,-4.777274E-3,-8.609689E-3,-4.8561785E-3,-1.2879302E-2,3.3773378E-2],"split_indices":[5,7,2,8,8,3,2,0,0,0,0,0,0,0,0],"split_type":[0,0,0,0,0,0,0,0,0,0,0,0,0,0,0],"sum_hessian":[1.1054E5,7.069E4,3.985E4,4.278E3,6.6412E4,3.1577E4,8.273E3,6.94E2,3.584E3,4.3177E4,2.3235E4,1.3975E4,1.7602E4,8.217E3,5.6E1],"tree_param":{"num_deleted":"0","num_feature":"10","num_nodes":"15","size_leaf_vector":"0"}},{"base_weights":[-5.9508912E-2,-3.3969916E-2,-6.272929E-2,-5.2143663E-2,2.9642417E-3,-4.6720345E-2,-6.820501E-2,3.4895575E-1,-5.3009007E-2,-3.646561E-2,3.191614E-2,-6.2035806E-2,-3.574412E-4,-7.4960135E-2,-5.139138E-2],"categories":[],"categories_nodes":[],"categories_segments":[],"categories_sizes":[],"default_left":[1,1,1,1,1,1,1,0,0,0,0,0,0,0,0],"id":20,"left_children":[1,3,5,7,9,11,13,-1,-1,-1,-1,-1,-1,-1,-1],"loss_changes":[9.092133E0,8.312691E0,8.60437E0,2.8993378E0,4.664474E0,1.77723E1,8.305969E0,0E0,0E0,0E0,0E0,0E0,0E0,0E0,0E0],"parents":[2147483647,0,0,1,1,2,2,3,3,4,4,5,5,6,6],"right_children":[2,4,6,8,10,12,14,-1,-1,-1,-1,-1,-1,-1,-1],"split_conditions":[-9.231673E-1,6.195964E-1,-6.657743E-1,-6.11182E-1,2.2643237E-1,5.715988E-2,3.575412E-1,3.4895577E-2,-5.300901E-3,-3.6465612E-3,3.1916143E-3,-6.2035806E-3,-3.574412E-5,-7.496014E-3,-5.139138E-3],"split_indices":[1,6,0,7,8,4,1,0,0,0,0,0,0,0,0],"split_type":[0,0,0,0,0,0,0,0,0,0,0,0,0,0,0],"sum_hessian":[1.10574E5,1.2383E4,9.8191E4,8.299E3,4.084E3,2.5028E4,7.3163E4,1.7E1,8.282E3,1.729E3,2.355E3,1.8813E4,6.215E3,5.2191E4,2.0972E4],"tree_param":{"num_deleted":"0","num_feature":"10","num_nodes":"15","size_leaf_vector":"0"}},{"base_weights":[-5.6325085E-2,-5.4270767E-2,-7.955549E-2,-5.690941E-2,-2.5890518E-2,-7.2835E-2,-2.270116E-1,-9.091221E-2,-5.4450206E-2,-3.377687E-2,1.08762056E-1,6.2597716E-1,-7.413694E-2,-1.8728422E-1,-8.510525E-1],"categories":[],"categories_nodes":[],"categories_segments":[],"categories_sizes":[],"default_left":[1,1,1,1,1,1,1,0,0,0,0,0,0,0,0],"id":21,"left_children":[1,3,5,7,9,11,13,-1,-1,-1,-1,-1,-1,-1,-1],"loss_changes":[5.2451477E0,7.566803E0,8.837845E0,7.7271423E0,9.135105E0,7.822571E0,9.484512E0,0E0,0E0,0E0,0E0,0E0,0E0,0E0,0E0],"parents":[2147483647,0,0,1,1,2,2,3,3,4,4,5,5,6,6],"right_children":[2,4,6,8,10,12,14,-1,-1,-1,-1,-1,-1,-1,-1],"split_conditions":[2.0153995E0,1.6181905E0,2.4467254E0,-1.0747149E0,-1.633486E0,-2.3161223E0,-2.4151819E0,-9.091221E-3,-5.4450207E-3,-3.3776872E-3,1.0876206E-2,6.2597714E-2,-7.413694E-3,-1.8728422E-2,-8.5105255E-2],"split_indices":[5,0,0,9,9,9,9,0,0,0,0,0,0,0,0],"split_type":[0,0,0,0,0,0,0,0,0,0,0,0,0,0,0],"sum_hessian":[1.09998E5,1.01064E5,8.934E3,9.2466E4,8.598E3,8.546E3,3.88E2,6.234E3,8.6232E4,8.123E3,4.75E2,1.5E1,8.531E3,3.66E2,2.2E1],"tree_param":{"num_deleted":"0","num_feature":"10","num_nodes":"15","size_leaf_vector":"0"}},{"base_weights":[-4.933571E-2,-4.693975E-2,-8.2222104E-2,-4.7012903E-2,8.961475E-1,-6.701307E-2,-1.603384E-1,-4.793834E-2,3.4151502E-2,-1.04136616E-1,1.0539218E0,-4.8974294E-2,-1.3921562E-1,-1.5465257E-1,-7.6913744E-1],"categories":[],"categories_nodes":[],"categories_segments":[],"categories_sizes":[],"default_left":[1,1,1,1,1,1,1,0,0,0,0,0,0,0,0],"id":22,"left_children":[1,3,5,7,9,11,13,-1,-1,-1,-1,-1,-1,-1,-1],"loss_changes":[8.6605835E0,7.113632E0,8.859409E0,7.6999054E0,1.3723054E0,8.134771E0,4.0902805E0,0E0,0E0,0E0,0E0,0E0,0E0,0E0,0E0],"parents":[2147483647,0,0,1,1,2,2,3,3,4,4,5,5,6,6],"right_children":[2,4,6,8,10,12,14,-1,-1,-1,-1,-1,-1,-1,-1],"split_conditions":[1.177294E0,1.1770947E0,1.5973185E0,2.5689292E0,-7.3616004E-1,1.2912867E0,2.5821723E-2,-4.793834E-3,3.4151503E-3,-1.0413662E-2,1.0539218E-1,-4.8974296E-3,-1.3921562E-2,-1.5465257E-2,-7.6913744E-2],"split_indices":[8,8,1,7,3,5,3,0,0,0,0,0,0,0,0],"split_type":[0,0,0,0,0,0,0,0,0,0,0,0,0,0,0],"sum_hessian":[1.09961E5,1.02496E5,7.465E3,1.02489E5,7E0,6.25E3,1.215E3,1.01334E5,1.155E3,1E0,6E0,5.002E3,1.248E3,1.205E3,1E1],"tree_param":{"num_deleted":"0","num_feature":"10","num_nodes":"15","size_leaf_vector":"0"}},{"base_weights":[-4.3177955E-2,-1.9721994E-2,-4.6560913E-2,-3.088773E-2,5.028978E-2,-3.7642765E-1,-4.62287E-2,-6.218291E-1,-2.9702188E-2,2.2020543E-1,2.2404222E-2,-9.3267775E-1,-2.4656604E-1,-4.901417E-2,-1.278855E-2],"categories":[],"categories_nodes":[],"categories_segments":[],"categories_sizes":[],"default_left":[1,1,1,1,1,1,1,0,0,0,0,0,0,0,0],"id":23,"left_children":[1,3,5,7,9,11,13,-1,-1,-1,-1,-1,-1,-1,-1],"loss_changes":[8.765488E0,1.0888751E1,1.0563263E1,8.3969755E0,9.073444E0,6.7768803E0,8.983826E0,0E0,0E0,0E0,0E0,0E0,0E0,0E0,0E0],"parents":[2147483647,0,0,1,1,2,2,3,3,4,4,5,5,6,6],"right_children":[2,4,6,8,10,12,14,-1,-1,-1,-1,-1,-1,-1,-1],"split_conditions":[-1.1290495E0,-1.2460136E0,-1.1225903E0,1.2713766E0,-8.0549884E-1,1.1428479E0,2.1466255E0,-6.218291E-2,-2.970219E-3,2.2020543E-2,2.2404222E-3,-9.3267776E-2,-2.4656605E-2,-4.901417E-3,-1.278855E-3],"split_indices":[0,0,0,9,6,9,3,0,0,0,0,0,0,0,0],"split_type":[0,0,0,0,0,0,0,0,0,0,0,0,0,0,0],"sum_hessian":[1.10476E5,1.3926E4,9.655E4,1.2011E4,1.915E3,9.6E1,9.6454E4,2.3E1,1.1988E4,2.69E2,1.646E3,1.7E1,7.9E1,8.9037E4,7.417E3],"tree_param":{"num_deleted":"0","num_feature":"10","num_nodes":"15","size_leaf_vector":"0"}},{"base_weights":[-4.0670328E-2,-4.727367E-2,-2.7732046E-2,-2.9194815E-2,-5.6754835E-2,-3.8804263E-2,1.0996027E-2,-9.683196E-3,-5.122053E-2,-3.5702564E-2,-7.2357215E-2,-4.1345127E-2,1.943811E-1,2.6032818E-2,-7.1316116E-2],"categories":[],"categories_nodes":[],"categories_segments":[],"categories_sizes":[],"default_left":[1,1,1,1,1,1,1,0,0,0,0,0,0,0,0],"id":24,"left_children":[1,3,5,7,9,11,13,-1,-1,-1,-1,-1,-1,-1,-1],"loss_changes":[9.433609E0,1.2530884E1,1.6003023E1,1.0810051E1,1.5750961E1,1.7203354E1,1.027238E1,0E0,0E0,0E0,0E0,0E0,0E0,0E0,0E0],"parents":[2147483647,0,0,1,1,2,2,3,3,4,4,5,5,6,6],"right_children":[2,4,6,8,10,12,14,-1,-1,-1,-1,-1,-1,-1,-1],"split_conditions":[3.4019563E-1,-3.4629261E-1,5.513282E-1,6.5465474E-1,-1.1980063E-1,8.8061875E-1,2.5724654E0,-9.6831965E-4,-5.122053E-3,-3.5702565E-3,-7.2357217E-3,-4.134513E-3,1.943811E-2,2.603282E-3,-7.1316115E-3],"split_indices":[9,3,3,7,6,7,3,0,0,0,0,0,0,0,0],"split_type":[0,0,0,0,0,0,0,0,0,0,0,0,0,0,0],"sum_hessian":[1.10432E5,7.3114E4,3.7318E4,2.5154E4,4.796E4,2.9021E4,8.297E3,1.3339E4,1.1815E4,2.0416E4,2.7544E4,2.8709E4,3.12E2,7.016E3,1.281E3],"tree_param":{"num_deleted":"0","num_feature":"10","num_nodes":"15","size_leaf_vector":"0"}},{"base_weights":[-3.857137E-2,-3.1593487E-2,-4.4125434E-2,-4.322231E-2,-1.9241458E-2,-1.775955E-1,-4.302865E-2,-4.686905E-2,1.16268555E-2,-2.9301357E-2,7.82976E-3,-1.2795606E-1,-5.697668E-1,-4.0132202E-2,-7.524774E-2],"categories":[],"categories_nodes":[],"categories_segments":[],"categories_sizes":[],"default_left":[1,1,1,1,1,1,1,0,0,0,0,0,0,0,0],"id":25,"left_children":[1,3,5,7,9,11,13,-1,-1,-1,-1,-1,-1,-1,-1],"loss_changes":[4.2799225E0,7.0321884E0,8.996384E0,5.0448685E0,6.466794E0,9.680143E0,5.6903076E0,0E0,0E0,0E0,0E0,0E0,0E0,0E0,0E0],"parents":[2147483647,0,0,1,1,2,2,3,3,4,4,5,5,6,6],"right_children":[2,4,6,8,10,12,14,-1,-1,-1,-1,-1,-1,-1,-1],"split_conditions":[-1.1342314E-1,1.0851771E-1,-1.2110643E0,2.5427952E0,-2.2228691E-1,-1.2168806E0,9.833857E-1,-4.686905E-3,1.1626856E-3,-2.9301357E-3,7.8297604E-4,-1.2795607E-2,-5.6976683E-2,-4.0132203E-3,-7.5247744E-3],"split_indices":[6,3,2,0,5,2,0,0,0,0,0,0,0,0,0],"split_type":[0,0,0,0,0,0,0,0,0,0,0,0,0,0,0],"sum_hessian":[1.10469E5,4.8962E4,6.1507E4,2.5218E4,2.3744E4,5E2,6.1007E4,2.3646E4,1.572E3,1.7311E4,6.433E3,4.45E2,5.5E1,5.5977E4,5.03E3],"tree_param":{"num_deleted":"0","num_feature":"10","num_nodes":"15","size_leaf_vector":"0"}},{"base_weights":[-2.9846573E-2,-3.5216898E-2,-1.8560305E-2,-3.419931E-2,-1.6919228E-1,1.7366394E-1,-2.0575486E-2,1.8670136E-2,-3.5986084E-2,-2.1247347E-1,2.6165115E-2,-5.5526156E-2,2.4779525E-1,-4.5942897E-3,-3.7219327E-2],"categories":[],"categories_nodes":[],"categories_segments":[],"categories_sizes":[],"default_left":[1,1,1,1,1,1,1,0,0,0,0,0,0,0,0],"id":26,"left_children":[1,3,5,7,9,11,13,-1,-1,-1,-1,-1,-1,-1,-1],"loss_changes":[6.683342E0,1.0181068E1,1.3777166E1,7.0061493E0,4.765892E0,6.2831287E0,9.359697E0,0E0,0E0,0E0,0E0,0E0,0E0,0E0,0E0],"parents":[2147483647,0,0,1,1,2,2,3,3,4,4,5,5,6,6],"right_children":[2,4,6,8,10,12,14,-1,-1,-1,-1,-1,-1,-1,-1],"split_conditions":[5.411341E-1,5.161736E-1,5.558628E-1,-2.5360425E0,1.5408769E0,-4.266237E-1,3.4359336E-1,1.8670136E-3,-3.5986085E-3,-2.1247348E-2,2.6165114E-3,-5.5526155E-3,2.4779527E-2,-4.5942896E-4,-3.7219326E-3],"split_indices":[6,6,6,0,5,8,8,0,0,0,0,0,0,0,0],"split_type":[0,0,0,0,0,0,0,0,0,0,0,0,0,0,0],"sum_hessian":[1.10276E5,7.472E4,3.5556E4,7.4158E4,5.62E2,3.68E2,3.5188E4,2.424E3,7.1734E4,4.6E2,1.02E2,9E1,2.78E2,1.7952E4,1.7236E4],"tree_param":{"num_deleted":"0","num_feature":"10","num_nodes":"15","size_leaf_vector":"0"}},{"base_weights":[-2.8895156E-2,-2.8112834E-2,-8.647795E-2,-2.7395127E-2,-9.617573E-2,-7.747654E-2,-9.069526E-1,-1.305543E-2,-3.145411E-2,-6.9669835E-2,-3.9010122E-1,1.2583144E-1,-1.0945772E-1,-1.1231827E0,-3.5937208E-1],"categories":[],"categories_nodes":[],"categories_segments":[],"categories_sizes":[],"default_left":[1,1,1,1,1,1,1,0,0,0,0,0,0,0,0],"id":27,"left_children":[1,3,5,7,9,11,13,-1,-1,-1,-1,-1,-1,-1,-1],"loss_changes":[4.9832916E0,5.33136E0,1.0882326E1,6.2888794E0,8.8464985E0,9.558753E0,1.4908133E0,0E0,0E0,0E0,0E0,0E0,0E0,0E0,0E0],"parents":[2147483647,0,0,1,1,2,2,3,3,4,4,5,5,6,6],"right_children":[2,4,6,8,10,12,14,-1,-1,-1,-1,-1,-1,-1,-1],"split_conditions":[2.3572292E0,1.4772546E0,5.712032E-1,-6.101879E-1,-8.2458097E-1,-1.2640685E-1,2.751096E-1,-1.305543E-3,-3.145411E-3,-6.9669834E-3,-3.9010122E-2,1.2583144E-2,-1.0945772E-2,-1.1231827E-1,-3.593721E-2],"split_indices":[4,2,0,6,6,0,2,0,0,0,0,0,0,0,0],"split_type":[0,0,0,0,0,0,0,0,0,0,0,0,0,0,0],"sum_hessian":[1.10674E5,1.09192E5,1.482E3,1.08054E5,1.138E3,1.467E3,1.5E1,2.3839E4,8.4215E4,1.045E3,9.3E1,1.99E2,1.268E3,1E1,5E0],"tree_param":{"num_deleted":"0","num_feature":"10","num_nodes":"15","size_leaf_vector":"0"}},{"base_weights":[-2.3973428E-2,-2.608372E-2,3.8269047E-2,-2.5727043E-2,-4.0509975E-1,4.4880062E-1,3.40071E-2,-2.5119977E-2,-1.1651918E-1,-4.483112E-1,7.4405247E-1,8.971411E-1,6.448686E-2,3.742024E-2,-6.42167E-1],"categories":[],"categories_nodes":[],"categories_segments":[],"categories_sizes":[],"default_left":[1,1,1,1,1,1,1,0,0,0,0,0,0,0,0],"id":28,"left_children":[1,3,5,7,9,11,13,-1,-1,-1,-1,-1,-1,-1,-1],"loss_changes":[1.4455135E1,1.4378166E1,6.299274E0,5.857979E0,5.299219E0,6.3173733E0,8.270075E0,0E0,0E0,0E0,0E0,0E0,0E0,0E0,0E0],"parents":[2147483647,0,0,1,1,2,2,3,3,4,4,5,5,6,6],"right_children":[2,4,6,8,10,12,14,-1,-1,-1,-1,-1,-1,-1,-1],"split_conditions":[1.3120636E0,1.3067603E0,1.3144529E0,1.4518539E0,-7.0211446E-1,-9.330206E-1,-7.981685E-1,-2.5119977E-3,-1.1651918E-2,-4.4831123E-2,7.4405245E-2,8.971411E-2,6.448686E-3,3.742024E-3,-6.4216696E-2],"split_indices":[8,8,8,2,3,4,3,0,0,0,0,0,0,0,0],"split_type":[0,0,0,0,0,0,0,0,0,0,0,0,0,0,0],"sum_hessian":[1.10042E5,1.06434E5,3.608E3,1.06335E5,9.9E1,3.6E1,3.572E3,1.0563E5,7.05E2,9.6E1,3E0,1.6E1,2E1,3.555E3,1.7E1],"tree_param":{"num_deleted":"0","num_feature":"10","num_nodes":"15","size_leaf_vector":"0"}},{"base_weights":[-2.2749335E-2,-1.3215726E-2,-2.670107E-2,-1.3843449E-2,4.4799E-1,4.7987346E-2,-2.799369E-2,-1.0706576E-2,-7.591396E-2,-1.7431541E-1,6.361479E-1,-1.981805E-2,1.146079E-1,-2.5183769E-2,-5.6307167E-2],"categories":[],"categories_nodes":[],"categories_segments":[],"categories_sizes":[],"default_left":[1,1,1,1,1,1,1,0,0,0,0,0,0,0,0],"id":29,"left_children":[1,3,5,7,9,11,13,-1,-1,-1,-1,-1,-1,-1,-1],"loss_changes":[4.158436E0,9.371828E0,7.5355225E0,6.289598E0,5.262925E0,6.001157E0,6.1016846E0,0E0,0E0,0E0,0E0,0E0,0E0,0E0,0E0],"parents":[2147483647,0,0,1,1,2,2,3,3,4,4,5,5,6,6],"right_children":[2,4,6,8,10,12,14,-1,-1,-1,-1,-1,-1,-1,-1],"split_conditions":[-4.7609144E-1,-4.7782505E-1,-1.1497471E0,2.9990501E0,-1.1882827E0,5.521469E-2,1.1398492E0,-1.0706576E-3,-7.591396E-3,-1.743154E-2,6.361479E-2,-1.981805E-3,1.146079E-2,-2.518377E-3,-5.6307167E-3],"split_indices":[6,6,1,1,7,7,0,0,0,0,0,0,0,0,0],"split_type":[0,0,0,0,0,0,0,0,0,0,0,0,0,0,0],"sum_hessian":[1.10387E5,3.2349E4,7.8038E4,3.2306E4,4.3E1,1.327E3,7.6711E4,3.0753E4,1.553E3,1E1,3.3E1,6.58E2,6.69E2,6.9787E4,6.924E3],"tree_param":{"num_deleted":"0","num_feature":"10","num_nodes":"15","size_leaf_vector":"0"}},{"base_weights":[-2.2453345E-2,-2.3629777E-2,2.4255969E-2,-2.2994088E-2,-1.7999125E-1,4.5795086E-1,1.4900632E-2,-2.3288302E-2,3.381154E-1,-6.777461E-1,-1.5176709E-1,2.620817E-1,9.034029E-1,7.6224506E-2,-5.6247227E-2],"categories":[],"categories_nodes":[],"categories_segments":[],"categories_sizes":[],"default_left":[1,1,1,1,1,1,1,0,0,0,0,0,0,0,0],"id":30,"left_children":[1,3,5,7,9,11,13,-1,-1,-1,-1,-1,-1,-1,-1],"loss_changes":[6.040821E0,1.06534195E1,1.0952109E1,1.1353512E1,5.9942827E0,4.7365026E0,1.1544587E1,0E0,0E0,0E0,0E0,0E0,0E0,0E0,0E0],"parents":[2147483647,0,0,1,1,2,2,3,3,4,4,5,5,6,6],"right_children":[2,4,6,8,10,12,14,-1,-1,-1,-1,-1,-1,-1,-1],"split_conditions":[2.5849805E0,2.4423914E0,2.6051753E0,2.4198184E0,6.833805E-1,2.6007965E0,2.8824978E0,-2.3288303E-3,3.381154E-2,-6.7774616E-2,-1.5176709E-2,2.6208172E-2,9.0340294E-2,7.6224506E-3,-5.6247227E-3],"split_indices":[7,7,7,7,8,7,1,0,0,0,0,0,0,0,0],"split_type":[0,0,0,0,0,0,0,0,0,0,0,0,0,0,0],"sum_hessian":[1.09921E5,1.07221E5,2.7E3,1.06788E5,4.33E2,5.6E1,2.644E3,1.06702E5,8.6E1,2.2E1,4.11E2,4E1,1.6E1,1.42E3,1.224E3],"tree_param":{"num_deleted":"0","num_feature":"10","num_nodes":"15","size_leaf_vector":"0"}},{"base_weights":[-1.7663494E-2,-9.869145E-3,-2.2586605E-2,-1.2438628E-2,1.22147724E-1,-1.9893942E-2,-6.34334E-2,-1.9156065E-2,1.0285247E-2,1.0816039E0,1.1491662E-1,-2.7143966E-2,-4.310698E-3,-7.0256524E-2,1.7284882E-1],"categories":[],"categories_nodes":[],"categories_segments":[],"categories_sizes":[],"default_left":[1,1,1,1,1,1,1,0,0,0,0,0,0,0,0],"id":31,"left_children":[1,3,5,7,9,11,13,-1,-1,-1,-1,-1,-1,-1,-1],"loss_changes":[4.2461853E0,1.4533831E1,7.4583626E0,6.415002E0,5.550928E0,7.1887302E0,6.773636E0,0E0,0E0,0E0,0E0,0E0,0E0,0E0,0E0],"parents":[2147483647,0,0,1,1,2,2,3,3,4,4,5,5,6,6],"right_children":[2,4,6,8,10,12,14,-1,-1,-1,-1,-1,-1,-1,-1],"split_conditions":[-2.1392673E-1,-2.31688E-1,2.076583E0,7.917552E-1,-1.8110671E0,7.567462E-1,2.5347726E0,-1.9156066E-3,1.0285247E-3,1.0816039E-1,1.1491663E-2,-2.7143967E-3,-4.3106978E-4,-7.0256526E-3,1.7284883E-2],"split_indices":[0,0,6,5,7,8,7,0,0,0,0,0,0,0,0],"split_type":[0,0,0,0,0,0,0,0,0,0,0,0,0,0,0],"sum_hessian":[1.10662E5,4.284E4,6.7822E4,4.2023E4,8.17E2,6.3629E4,4.193E3,3.2435E4,9.588E3,5E0,8.12E2,4.3425E4,2.0204E4,4.076E3,1.17E2],"tree_param":{"num_deleted":"0","num_feature":"10","num_nodes":"15","size_leaf_vector":"0"}},{"base_weights":[-1.7132895E-2,-3.8455922E-2,-1.5122123E-2,-3.7007153E-2,-6.6264254E-1,6.9637746E-2,-1.587445E-2,-7.4016504E-2,-1.3079912E-2,-9.264471E-1,-3.6560148E-1,5.4865077E-2,5.058319E-1,-6.373976E-1,-1.5706668E-2],"categories":[],"categories_nodes":[],"categories_segments":[],"categories_sizes":[],"default_left":[1,1,1,1,1,1,1,0,0,0,0,0,0,0,0],"id":32,"left_children":[1,3,5,7,9,11,13,-1,-1,-1,-1,-1,-1,-1,-1],"loss_changes":[4.7393723E0,8.589867E0,6.4432335E0,8.416009E0,1.3852272E0,5.7007437E0,1.0432426E1,0E0,0E0,0E0,0E0,0E0,0E0,0E0,0E0],"parents":[2147483647,0,0,1,1,2,2,3,3,4,4,5,5,6,6],"right_children":[2,4,6,8,10,12,14,-1,-1,-1,-1,-1,-1,-1,-1],"split_conditions":[-1.1571527E0,-1.1574234E0,-2.4472077E0,-8.732853E-1,-8.544898E-1,-7.9459175E-2,-2.4335294E0,-7.4016503E-3,-1.3079912E-3,-9.2644714E-2,-3.6560148E-2,5.486508E-3,5.058319E-2,-6.373976E-2,-1.5706668E-3],"split_indices":[2,2,0,3,8,8,0,0,0,0,0,0,0,0,0],"split_type":[0,0,0,0,0,0,0,0,0,0,0,0,0,0,0],"sum_hessian":[1.1055E5,9.525E3,1.01025E5,9.504E3,2.1E1,8.88E2,1.00137E5,3.731E3,5.773E3,1E1,1.1E1,8.6E2,2.8E1,2.6E1,1.00111E5],"tree_param":{"num_deleted":"0","num_feature":"10","num_nodes":"15","size_leaf_vector":"0"}},{"base_weights":[-1.4922879E-2,-1.43595E-2,-1.1407172E-1,-1.5928833E-2,5.682479E-2,-7.8250645E-3,-2.9369986E-1,6.5519246E-3,-1.9333292E-2,7.935773E-3,1.309768E-1,-1.0999626E0,3.3391577E-3,-2.4041943E-1,-1.0012894E0],"categories":[],"categories_nodes":[],"categories_segments":[],"categories_sizes":[],"default_left":[1,1,1,1,1,1,1,0,0,0,0,0,0,0,0],"id":33,"left_children":[1,3,5,7,9,11,13,-1,-1,-1,-1,-1,-1,-1,-1],"loss_changes":[6.1985283E0,1.2330767E1,1.1963928E1,8.265272E0,8.630608E0,4.8198547E0,8.543528E0,0E0,0E0,0E0,0E0,0E0,0E0,0E0,0E0],"parents":[2147483647,0,0,1,1,2,2,3,3,4,4,5,5,6,6],"right_children":[2,4,6,8,10,12,14,-1,-1,-1,-1,-1,-1,-1,-1],"split_conditions":[1.5282035E0,2.5955818E0,2.661772E0,-8.8474214E-1,1.3033087E0,1.5287911E0,-8.9872026E-1,6.551925E-4,-1.9333292E-3,7.935773E-4,1.309768E-2,-1.0999626E-1,3.3391578E-4,-2.4041943E-2,-1.0012894E-1],"split_indices":[2,7,7,1,2,2,4,0,0,0,0,0,0,0,0],"split_type":[0,0,0,0,0,0,0,0,0,0,0,0,0,0,0],"sum_hessian":[1.10997E5,1.10371E5,6.26E2,1.07991E5,2.38E3,3.94E2,2.32E2,1.4203E4,9.3788E4,1.435E3,9.45E2,3E0,3.91E2,2.17E2,1.5E1],"tree_param":{"num_deleted":"0","num_feature":"10","num_nodes":"15","size_leaf_vector":"0"}},{"base_weights":[-1.3208432E-2,-9.548317E-3,-3.5290428E-2,-9.831686E-3,4.803068E-1,-1.19515926E-1,-2.0825537E-2,-2.4093658E-2,-5.328756E-3,2.7261156E-1,8.3014286E-1,-1.0045799E-1,-3.2007492E-1,-1.162719E-2,-9.511824E-2],"categories":[],"categories_nodes":[],"categories_segments":[],"categories_sizes":[],"default_left":[1,1,1,1,1,1,1,0,0,0,0,0,0,0,0],"id":34,"left_children":[1,3,5,7,9,11,13,-1,-1,-1,-1,-1,-1,-1,-1],"loss_changes":[8.959581E0,1.3205233E1,1.9200556E1,6.1036596E0,3.7699537E0,8.797222E0,9.192272E0,0E0,0E0,0E0,0E0,0E0,0E0,0E0,0E0],"parents":[2147483647,0,0,1,1,2,2,3,3,4,4,5,5,6,6],"right_children":[2,4,6,8,10,12,14,-1,-1,-1,-1,-1,-1,-1,-1],"split_conditions":[1.1223483E0,1.1194868E0,7.861788E-1,-8.093877E-1,1.1533826E-1,1.12003E0,-1.2344674E0,-2.4093657E-3,-5.328756E-4,2.7261157E-2,8.301429E-2,-1.0045799E-2,-3.2007493E-2,-1.162719E-3,-9.511824E-3],"split_indices":[0,0,2,8,5,8,9,0,0,0,0,0,0,0,0],"split_type":[0,0,0,0,0,0,0,0,0,0,0,0,0,0,0],"sum_hessian":[1.10858E5,9.5097E4,1.5761E4,9.5043E4,5.4E1,2.309E3,1.3452E4,2.2806E4,7.2237E4,3.5E1,1.9E1,2.11E3,1.99E2,1.1971E4,1.481E3],"tree_param":{"num_deleted":"0","num_feature":"10","num_nodes":"15","size_leaf_vector":"0"}},{"base_weights":[-1.0760017E-2,-1.12715345E-2,9.2691995E-2,-1.0898164E-2,-1.6673276E-1,-9.674178E-1,9.839927E-2,-1.4048183E-2,3.6405744E-3,-1.471177E-2,-3.3190864E-1,8.596115E-2,9.1634375E-1],"categories":[],"categories_nodes":[],"categories_segments":[],"categories_sizes":[],"default_left":[1,1,1,1,1,0,1,0,0,0,0,0,0],"id":35,"left_children":[1,3,5,7,9,-1,11,-1,-1,-1,-1,-1,-1],"loss_changes":[5.8399706E0,6.371377E0,3.3805285E0,5.016506E0,6.5990996E0,0E0,5.425196E0,0E0,0E0,0E0,0E0,0E0,0E0],"parents":[2147483647,0,0,1,1,2,2,3,3,4,4,6,6],"right_children":[2,4,6,8,10,-1,12,-1,-1,-1,-1,-1,-1],"split_conditions":[2.9568484E0,2.8389776E0,-3.3197793E-1,1.0760009E0,2.208623E0,-9.674178E-2,2.0481694E-1,-1.4048184E-3,3.6405746E-4,-1.4711771E-3,-3.3190865E-2,8.596115E-3,9.163438E-2],"split_indices":[6,6,9,3,5,0,0,0,0,0,0,0,0],"split_type":[0,0,0,0,0,0,0,0,0,0,0,0,0],"sum_hessian":[1.10339E5,1.09797E5,5.42E2,1.09535E5,2.62E2,2E0,5.4E2,9.0029E4,1.9506E4,1.37E2,1.25E2,5.33E2,7E0],"tree_param":{"num_deleted":"0","num_feature":"10","num_nodes":"13","size_leaf_vector":"0"}},{"base_weights":[-1.0233888E-2,-9.006507E-3,-8.137387E-2,-1.2077933E-2,6.637541E-3,-6.963256E-2,-2.270057E-1,-1.0075232E-2,-6.825634E-2,1.373209E-1,3.1200657E-3,-5.4295856E-1,-6.2096238E-2,-9.972528E-1,-1.3962106E-1],"categories":[],"categories_nodes":[],"categories_segments":[],"categories_sizes":[],"default_left":[1,1,1,1,1,1,1,0,0,0,0,0,0,0,0],"id":36,"left_children":[1,3,5,7,9,11,13,-1,-1,-1,-1,-1,-1,-1,-1],"loss_changes":[9.621916E0,5.2056236E0,3.1800098E0,1.01878605E1,8.172603E0,6.1410017E0,9.216541E0,0E0,0E0,0E0,0E0,0E0,0E0,0E0,0E0],"parents":[2147483647,0,0,1,1,2,2,3,3,4,4,5,5,6,6],"right_children":[2,4,6,8,10,12,14,-1,-1,-1,-1,-1,-1,-1,-1],"split_conditions":[1.4261999E0,9.1504204E-1,-2.590167E-1,2.2543762E0,9.415363E-1,1.0949509E0,-2.18802E-1,-1.0075233E-3,-6.8256343E-3,1.3732091E-2,3.1200657E-4,-5.4295857E-2,-6.209624E-3,-9.972528E-2,-1.3962107E-2],"split_indices":[2,1,5,5,1,8,5,0,0,0,0,0,0,0,0],"split_type":[0,0,0,0,0,0,0,0,0,0,0,0,0,0,0],"sum_hessian":[1.10204E5,1.08336E5,1.868E3,9.0557E4,1.7779E4,1.73E3,1.38E2,8.7441E4,3.116E3,4.65E2,1.7314E4,2.6E1,1.704E3,1.3E1,1.25E2],"tree_param":{"num_deleted":"0","num_feature":"10","num_nodes":"15","size_leaf_vector":"0"}},{"base_weights":[-9.6906405E-3,-1.2146702E-2,8.142023E-3,-1.202111E-2,-7.306508E-1,6.503273E-1,6.3167517E-3,-9.017121E-3,-2.7355263E-2,4.9722695E-1,-8.384698E-1,-8.468764E-1,7.1368086E-1,1.0475995E-2,-2.1477176E-1],"categories":[],"categories_nodes":[],"categories_segments":[],"categories_sizes":[],"default_left":[1,1,1,1,1,1,1,0,0,0,0,0,0,0,0],"id":37,"left_children":[1,3,5,7,9,11,13,-1,-1,-1,-1,-1,-1,-1,-1],"loss_changes":[4.852009E0,8.777606E0,1.5715765E1,4.484186E0,2.6675158E0,4.2088184E0,1.2300457E1,0E0,0E0,0E0,0E0,0E0,0E0,0E0,0E0],"parents":[2147483647,0,0,1,1,2,2,3,3,4,4,5,5,6,6],"right_children":[2,4,6,8,10,12,14,-1,-1,-1,-1,-1,-1,-1,-1],"split_conditions":[1.2462453E0,1.2448568E0,1.2495291E0,9.626801E-1,-1.3508804E0,-9.2985576E-1,1.5278858E0,-9.017121E-4,-2.7355263E-3,4.9722698E-2,-8.384698E-2,-8.468764E-2,7.136809E-2,1.0475995E-3,-2.1477176E-2],"split_indices":[1,1,1,5,2,5,2,0,0,0,0,0,0,0,0],"split_type":[0,0,0,0,0,0,0,0,0,0,0,0,0,0,0],"sum_hessian":[1.10778E5,9.7368E4,1.341E4,9.7352E4,1.6E1,3.7E1,1.3373E4,8.1406E4,1.5946E4,1E0,1.5E1,1E0,3.6E1,1.3127E4,2.46E2],"tree_param":{"num_deleted":"0","num_feature":"10","num_nodes":"15","size_leaf_vector":"0"}},{"base_weights":[-9.838816E-3,-1.18106045E-1,-9.228103E-3,-3.376945E-1,-3.7862778E-2,4.786298E-3,-1.284364E-2,-7.1032476E-1,-2.5635162E-1,-5.7815097E-2,5.1069844E-1,-5.0647706E-3,4.0273413E-2,3.7778527E-2,-1.4311604E-2],"categories":[],"categories_nodes":[],"categories_segments":[],"categories_sizes":[],"default_left":[1,1,1,1,1,1,1,0,0,0,0,0,0,0,0],"id":38,"left_children":[1,3,5,7,9,11,13,-1,-1,-1,-1,-1,-1,-1,-1],"loss_changes":[7.273052E0,1.0859058E1,5.543213E0,4.819191E0,4.9876432E0,7.843516E0,6.4628944E0,0E0,0E0,0E0,0E0,0E0,0E0,0E0,0E0],"parents":[2147483647,0,0,1,1,2,2,3,3,4,4,5,5,6,6],"right_children":[2,4,6,8,10,12,14,-1,-1,-1,-1,-1,-1,-1,-1],"split_conditions":[-1.5344661E0,-2.438548E0,-7.256965E-1,2.8072314E0,2.3337553E0,1.1344491E-1,-1.0906917E0,-7.103248E-2,-2.5635162E-2,-5.78151E-3,5.1069845E-2,-5.064771E-4,4.0273415E-3,3.7778527E-3,-1.4311605E-3],"split_indices":[2,0,0,9,9,4,7,0,0,0,0,0,0,0,0],"split_type":[0,0,0,0,0,0,0,0,0,0,0,0,0,0,0],"sum_hessian":[1.10013E5,6.16E2,1.09397E5,1.64E2,4.52E2,2.2435E4,8.6962E4,2.8E1,1.36E2,4.37E2,1.5E1,1.7561E4,4.874E3,2.45E3,8.4512E4],"tree_param":{"num_deleted":"0","num_feature":"10","num_nodes":"15","size_leaf_vector":"0"}},{"base_weights":[-6.984974E-3,-8.496104E-3,1.6137276E-2,-9.321928E-3,4.553284E-2,-5.124791E-2,5.0072983E-2,-8.925464E-3,-1.8802609E-1,-6.987803E-2,1.2454079E-1,1.3349533E0,-5.367118E-2,3.2956276E-2,1.8327215E-1],"categories":[],"categories_nodes":[],"categories_segments":[],"categories_sizes":[],"default_left":[1,1,1,1,1,1,1,0,0,0,0,0,0,0,0],"id":39,"left_children":[1,3,5,7,9,11,13,-1,-1,-1,-1,-1,-1,-1,-1],"loss_changes":[3.8594089E0,4.6263275E0,1.5497679E1,7.233279E0,1.4242486E1,7.696902E0,1.02696085E1,0E0,0E0,0E0,0E0,0E0,0E0,0E0,0E0],"parents":[2147483647,0,0,1,1,2,2,3,3,4,4,5,5,6,6],"right_children":[2,4,6,8,10,12,14,-1,-1,-1,-1,-1,-1,-1,-1],"split_conditions":[2.3712728E0,2.8239505E0,-3.6602333E-1,2.334617E0,-8.7664235E-1,-2.5053173E-1,9.826611E-1,-8.9254644E-4,-1.880261E-2,-6.9878027E-3,1.2454079E-2,1.3349533E-1,-5.3671184E-3,3.2956277E-3,1.8327216E-2],"split_indices":[5,7,3,5,4,6,8,0,0,0,0,0,0,0,0],"split_type":[0,0,0,0,0,0,0,0,0,0,0,0,0,0,0],"sum_hessian":[1.10451E5,1.03676E5,6.775E3,1.02116E5,1.56E3,2.269E3,4.506E3,1.01891E5,2.25E2,6.34E2,9.26E2,3E0,2.266E3,3.994E3,5.12E2],"tree_param":{"num_deleted":"0","num_feature":"10","num_nodes":"15","size_leaf_vector":"0"}},{"base_weights":[-7.3948554E-3,-7.8032915E-3,9.837581E-2,-7.734208E-3,-6.4059603E-1,6.2943086E-2,4.1998985E-1,3.365081E-2,-8.62474E-3,-1.0521258E0,4.4549498E-1,4.9465425E-2,1.0746567E0,5.5822974E-1,-5.0248784E-1],"categories":[],"categories_nodes":[],"categories_segments":[],"categories_sizes":[],"default_left":[1,1,1,1,1,1,1,0,0,0,0,0,0,0,0],"id":40,"left_children":[1,3,5,7,9,11,13,-1,-1,-1,-1,-1,-1,-1,-1],"loss_changes":[4.772961E0,4.8055844E0,4.816721E0,4.055447E0,5.8322225E0,5.182887E0,5.636479E0,0E0,0E0,0E0,0E0,0E0,0E0,0E0,0E0],"parents":[2147483647,0,0,1,1,2,2,3,3,4,4,5,5,6,6],"right_children":[2,4,6,8,10,12,14,-1,-1,-1,-1,-1,-1,-1,-1],"split_conditions":[2.999751E0,2.9927292E0,2.0829122E0,-1.4172556E0,2.1652006E-2,-4.0213397E-1,1.4566368E-2,3.3650813E-3,-8.6247403E-4,-1.05212584E-1,4.45495E-2,4.9465424E-3,1.0746568E-1,5.5822976E-2,-5.0248783E-2],"split_indices":[6,6,7,2,2,3,3,0,0,0,0,0,0,0,0],"split_type":[0,0,0,0,0,0,0,0,0,0,0,0,0,0,0],"sum_hessian":[1.10465E5,1.10041E5,4.24E2,1.1003E5,1.1E1,3.83E2,4.1E1,2.317E3,1.07713E5,8E0,3E0,3.79E2,4E0,3.6E1,5E0],"tree_param":{"num_deleted":"0","num_feature":"10","num_nodes":"15","size_leaf_vector":"0"}},{"base_weights":[-5.095148E-3,-4.6108468E-3,-8.295665E-2,-4.8702348E-2,-3.466078E-3,-7.062749E-2,-7.6647687E-1,-3.242801E-2,-2.0692205E-1,2.2388133E-1,-3.7786954E-3,-1.901293E-1,-2.8815977E-2],"categories":[],"categories_nodes":[],"categories_segments":[],"categories_sizes":[],"default_left":[1,1,1,1,1,1,0,0,0,0,0,0,0],"id":41,"left_children":[1,3,5,7,9,11,-1,-1,-1,-1,-1,-1,-1],"loss_changes":[4.1663594E0,5.542797E0,5.7016664E0,7.1489954E0,7.6084013E0,3.3522038E0,0E0,0E0,0E0,0E0,0E0,0E0,0E0],"parents":[2147483647,0,0,1,1,2,2,3,3,4,4,5,5],"right_children":[2,4,6,8,10,12,-1,-1,-1,-1,-1,-1,-1],"split_conditions":[1.5263458E0,-1.3425193E0,-5.0546265E-1,1.5500655E0,-1.3189617E0,-4.5797065E-1,-7.664769E-2,-3.2428012E-3,-2.0692205E-2,2.2388134E-2,-3.7786955E-4,-1.901293E-2,-2.8815977E-3],"split_indices":[2,8,5,3,8,1,0,0,0,0,0,0,0],"split_type":[0,0,0,0,0,0,0,0,0,0,0,0,0],"sum_hessian":[1.10498E5,1.09816E5,6.82E2,2.778E3,1.07038E5,6.71E2,1.1E1,2.52E3,2.58E2,1.46E2,1.06892E5,1.73E2,4.98E2],"tree_param":{"num_deleted":"0","num_feature":"10","num_nodes":"13","size_leaf_vector":"0"}},{"base_weights":[-7.627428E-3,2.8849615E-2,-9.202783E-3,3.304106E-2,-3.0425152E-1,1.89968E-3,-1.3913004E-2,8.4464455E-1,2.9972434E-2,-5.796979E-1,3.779575E-1,6.4710365E-3,-4.340083E-2,-1.6211706E-1,-1.2647847E-2],"categories":[],"categories_nodes":[],"categories_segments":[],"categories_sizes":[],"default_left":[1,1,1,1,1,1,1,0,0,0,0,0,0,0,0],"id":42,"left_children":[1,3,5,7,9,11,13,-1,-1,-1,-1,-1,-1,-1,-1],"loss_changes":[6.3557596E0,6.403142E0,5.5444E0,1.1239252E1,1.0930084E1,6.540433E0,1.3955549E1,0E0,0E0,0E0,0E0,0E0,0E0,0E0,0E0],"parents":[2147483647,0,0,1,1,2,2,3,3,4,4,5,5,6,6],"right_children":[2,4,6,8,10,12,14,-1,-1,-1,-1,-1,-1,-1,-1],"split_conditions":[-1.8859292E0,4.719383E-1,-5.033475E-1,-2.901041E-1,-1.986387E0,1.4543383E0,-4.9295673E-1,8.446445E-2,2.9972435E-3,-5.796979E-2,3.779575E-2,6.4710365E-4,-4.3400833E-3,-1.6211707E-2,-1.2647847E-3],"split_indices":[7,0,3,9,7,9,3,0,0,0,0,0,0,0,0],"split_type":[0,0,0,0,0,0,0,0,0,0,0,0,0,0,0],"sum_hessian":[1.10598E5,4.578E3,1.0602E5,4.522E3,5.6E1,3.1581E4,7.4439E4,1.6E1,4.506E3,4E1,1.6E1,2.8687E4,2.894E3,6.29E2,7.381E4],"tree_param":{"num_deleted":"0","num_feature":"10","num_nodes":"15","size_leaf_vector":"0"}},{"base_weights":[-7.268713E-3,-9.865089E-3,1.2772803E-2,-9.525258E-3,-2.80894E-1,-2.4735266E-1,1.6661111E-2,3.3483389E-3,-1.4956401E-2,-3.343922E-1,4.279602E-1,-1.023026E0,-2.1130383E-1,1.3548291E-2,2.080706E-1],"categories":[],"categories_nodes":[],"categories_segments":[],"categories_sizes":[],"default_left":[1,1,1,1,1,1,1,0,0,0,0,0,0,0,0],"id":43,"left_children":[1,3,5,7,9,11,13,-1,-1,-1,-1,-1,-1,-1,-1],"loss_changes":[5.727861E0,8.972857E0,1.2773654E1,6.805132E0,4.769642E0,4.984783E0,7.4092236E0,0E0,0E0,0E0,0E0,0E0,0E0,0E0,0E0],"parents":[2147483647,0,0,1,1,2,2,3,3,4,4,5,5,6,6],"right_children":[2,4,6,8,10,12,14,-1,-1,-1,-1,-1,-1,-1,-1],"split_conditions":[1.505784E0,1.4977878E0,-9.2897904E-1,-4.5461494E-1,1.6140144E0,3.4357053E-1,7.283232E-1,3.348339E-4,-1.4956401E-3,-3.343922E-2,4.279602E-2,-1.023026E-1,-2.1130383E-2,1.3548292E-3,2.0807061E-2],"split_indices":[6,6,9,3,3,2,0,0,0,0,0,0,0,0,0],"split_type":[0,0,0,0,0,0,0,0,0,0,0,0,0,0,0],"sum_hessian":[1.10073E5,9.7449E4,1.2624E4,9.7328E4,1.21E2,1.85E2,1.2439E4,2.8878E4,6.845E4,1.13E2,8E0,7E0,1.78E2,1.2241E4,1.98E2],"tree_param":{"num_deleted":"0","num_feature":"10","num_nodes":"15","size_leaf_vector":"0"}},{"base_weights":[-7.7262195E-4,2.6387742E-3,-1.513195E-2,2.0532304E-2,-3.3319086E-6,-1.1275661E-2,-2.4217322E-1,1.20645E-2,1.4466007E-1,-7.9251814E-1,1.09122186E-4,-9.954998E-3,-3.0189812E-1,-9.12877E-1,-2.0552191E-1],"categories":[],"categories_nodes":[],"categories_segments":[],"categories_sizes":[],"default_left":[1,1,1,1,1,1,1,0,0,0,0,0,0,0,0],"id":44,"left_children":[1,3,5,7,9,11,13,-1,-1,-1,-1,-1,-1,-1,-1],"loss_changes":[5.3941603E0,4.2066255E0,1.8505245E1,1.203113E1,6.9098573E0,7.97534E0,8.489891E0,0E0,0E0,0E0,0E0,0E0,0E0,0E0,0E0],"parents":[2147483647,0,0,1,1,2,2,3,3,4,4,5,5,6,6],"right_children":[2,4,6,8,10,12,14,-1,-1,-1,-1,-1,-1,-1,-1],"split_conditions":[1.0117261E0,-8.5405564E-1,2.9321465E0,-8.8813806E-1,-8.535989E-1,7.7289455E-2,2.973145E0,1.20645E-3,1.4466007E-2,-7.925182E-2,1.0912218E-5,-9.954999E-4,-3.0189812E-2,-9.12877E-2,-2.0552192E-2],"split_indices":[4,5,1,5,5,7,1,0,0,0,0,0,0,0,0],"split_type":[0,0,0,0,0,0,0,0,0,0,0,0,0,0,0],"sum_hessian":[1.10116E5,8.8978E4,2.1138E4,1.1447E4,7.7531E4,2.0786E4,3.52E2,1.0717E4,7.3E2,1E1,7.7521E4,2.0693E4,9.3E1,1.7E1,3.35E2],"tree_param":{"num_deleted":"0","num_feature":"10","num_nodes":"15","size_leaf_vector":"0"}},{"base_weights":[-3.651862E-3,3.376694E-2,-6.3680867E-3,1.9573506E-2,9.1996215E-2,-8.5527105E-3,1.0001382E-2,1.8559154E-2,5.231739E-1,9.511659E-2,-6.795067E-1,7.2888867E-3,-1.186795E-2,1.5360396E-3,1.0512557E-1],"categories":[],"categories_nodes":[],"categories_segments":[],"categories_sizes":[],"default_left":[1,1,1,1,1,1,1,0,0,0,0,0,0,0,0],"id":45,"left_children":[1,3,5,7,9,11,13,-1,-1,-1,-1,-1,-1,-1,-1],"loss_changes":[1.1182414E1,6.1521206E0,3.6682835E0,3.0491273E0,3.576994E0,4.752921E0,9.725755E0,0E0,0E0,0E0,0E0,0E0,0E0,0E0,0E0],"parents":[2147483647,0,0,1,1,2,2,3,3,4,4,5,5,6,6],"right_children":[2,4,6,8,10,12,14,-1,-1,-1,-1,-1,-1,-1,-1],"split_conditions":[-1.0533392E0,-1.1065011E0,1.0376728E0,3.1318668E-1,5.6408465E-1,-6.959864E-1,-2.6572794E-1,1.8559154E-3,5.2317392E-2,9.51166E-3,-6.795067E-2,7.2888867E-4,-1.186795E-3,1.5360396E-4,1.0512557E-2],"split_indices":[1,1,8,5,5,6,3,0,0,0,0,0,0,0,0],"split_type":[0,0,0,0,0,0,0,0,0,0,0,0,0,0,0],"sum_hessian":[1.10019E5,7.445E3,1.02574E5,5.987E3,1.458E3,9.0497E4,1.2077E4,5.976E3,1.1E1,1.453E3,5E0,1.5661E4,7.4836E4,1.1091E4,9.86E2],"tree_param":{"num_deleted":"0","num_feature":"10","num_nodes":"15","size_leaf_vector":"0"}},{"base_weights":[-3.0319018E-3,2.9832486E-3,-1.629111E-2,2.6381763E-3,4.0707526E-1,-9.82666E-2,-1.427872E-2,-5.227513E-3,1.5680643E-2,7.990073E-1,6.915756E-2,-2.8678223E-1,-6.496985E-2,-1.538337E-2,3.1455442E-1],"categories":[],"categories_nodes":[],"categories_segments":[],"categories_sizes":[],"default_left":[1,1,1,1,1,1,1,0,0,0,0,0,0,0,0],"id":46,"left_children":[1,3,5,7,9,11,13,-1,-1,-1,-1,-1,-1,-1,-1],"loss_changes":[8.83328E0,1.0622928E1,5.7005053E0,7.8096957E0,8.553393E0,5.178688E0,1.2259657E1,0E0,0E0,0E0,0E0,0E0,0E0,0E0,0E0],"parents":[2147483647,0,0,1,1,2,2,3,3,4,4,5,5,6,6],"right_children":[2,4,6,8,10,12,14,-1,-1,-1,-1,-1,-1,-1,-1],"split_conditions":[4.5908523E-1,4.5715028E-1,-2.7825782E0,2.3166189E-2,1.0420965E-1,6.8526655E-1,2.7251434E0,-5.227513E-4,1.5680643E-3,7.9900734E-2,6.9157565E-3,-2.8678223E-2,-6.4969854E-3,-1.5383371E-3,3.1455442E-2],"split_indices":[5,5,9,7,7,5,0,0,0,0,0,0,0,0,0],"split_type":[0,0,0,0,0,0,0,0,0,0,0,0,0,0,0],"sum_hessian":[1.10752E5,7.6189E4,3.4563E4,7.6125E4,6.4E1,8.27E2,3.3736E4,4.7487E4,2.8638E4,2.9E1,3.5E1,1.23E2,7.04E2,3.3624E4,1.12E2],"tree_param":{"num_deleted":"0","num_feature":"10","num_nodes":"15","size_leaf_vector":"0"}},{"base_weights":[-1.3933091E-3,4.2600226E-2,-3.2775288E-3,3.7631124E-2,2.8496277E-1,1.6775641E-4,-2.0977242E-2,4.0415037E-2,-3.7360084E-1,2.3755641E-1,1.2566621E0,-3.7108453E-3,2.2609433E-2,-6.438308E-2,-6.5617226E-3],"categories":[],"categories_nodes":[],"categories_segments":[],"categories_sizes":[],"default_left":[1,1,1,1,1,1,1,0,0,0,0,0,0,0,0],"id":47,"left_children":[1,3,5,7,9,11,13,-1,-1,-1,-1,-1,-1,-1,-1],"loss_changes":[9.157134E0,5.4532948E0,6.4597354E0,5.1061764E0,3.893363E0,7.7183013E0,1.0799465E1,0E0,0E0,0E0,0E0,0E0,0E0,0E0,0E0],"parents":[2147483647,0,0,1,1,2,2,3,3,4,4,5,5,6,6],"right_children":[2,4,6,8,10,12,14,-1,-1,-1,-1,-1,-1,-1,-1],"split_conditions":[-1.879888E0,-6.31603E-1,1.0318658E0,2.0819819E-1,1.9553132E0,6.0346895E-1,8.7683845E-1,4.0415036E-3,-3.7360083E-2,2.3755642E-2,1.2566622E-1,-3.7108452E-4,2.2609434E-3,-6.4383084E-3,-6.561723E-4],"split_indices":[7,8,0,2,4,2,2,0,0,0,0,0,0,0,0],"split_type":[0,0,0,0,0,0,0,0,0,0,0,0,0,0,0],"sum_hessian":[1.10466E5,4.536E3,1.0593E5,4.446E3,9E1,8.8671E4,1.7259E4,4.417E3,2.9E1,8.7E1,3E0,7.5605E4,1.3066E4,4.302E3,1.2957E4],"tree_param":{"num_deleted":"0","num_feature":"10","num_nodes":"15","size_leaf_vector":"0"}},{"base_weights":[-2.5542197E-3,-8.079037E-3,1.0768118E-2,-2.5845267E-2,-5.3988555E-3,8.649931E-3,1.2573284E-1,-2.4986174E-2,-6.985755E-1,1.4480542E-1,-6.5895957E-3,9.229432E-3,-4.7529233E-1,9.894897E-2,8.7742954E-1],"categories":[],"categories_nodes":[],"categories_segments":[],"categories_sizes":[],"default_left":[1,1,1,1,1,1,1,0,0,0,0,0,0,0,0],"id":48,"left_children":[1,3,5,7,9,11,13,-1,-1,-1,-1,-1,-1,-1,-1],"loss_changes":[8.120171E0,3.7131572E0,7.8742423E0,5.890224E0,1.2120479E1,8.910181E0,1.1691186E1,0E0,0E0,0E0,0E0,0E0,0E0,0E0,0E0],"parents":[2147483647,0,0,1,1,2,2,3,3,4,4,5,5,6,6],"right_children":[2,4,6,8,10,12,14,-1,-1,-1,-1,-1,-1,-1,-1],"split_conditions":[6.4887136E-1,-9.670582E-1,2.1044798E0,-8.634523E-1,-8.3379024E-1,2.0606601E0,6.060855E-1,-2.4986174E-3,-6.985755E-2,1.4480541E-2,-6.5895956E-4,9.229432E-4,-4.752923E-2,9.894897E-3,8.7742954E-2],"split_indices":[6,4,3,3,3,3,8,0,0,0,0,0,0,0,0],"split_type":[0,0,0,0,0,0,0,0,0,0,0,0,0,0,0],"sum_hessian":[1.10321E5,7.7982E4,3.2339E4,1.0221E4,6.7761E4,3.1755E4,5.84E2,1.0209E4,1.2E1,5.32E2,6.7229E4,3.1718E4,3.7E1,5.65E2,1.9E1],"tree_param":{"num_deleted":"0","num_feature":"10","num_nodes":"15","size_leaf_vector":"0"}},{"base_weights":[-2.6259595E-3,-2.0384758E-3,-1.0946345E-1,-9.887996E-3,3.9131567E-3,-4.7423375E-1,-4.8456267E-2,-6.2306724E-3,-7.1378715E-2,-4.1847434E-4,4.76416E-2,4.3386117E-1,-5.601898E-1,7.2561586E-1,-6.518816E-2],"categories":[],"categories_nodes":[],"categories_segments":[],"categories_sizes":[],"default_left":[1,1,1,1,1,1,1,0,0,0,0,0,0,0,0],"id":49,"left_children":[1,3,5,7,9,11,13,-1,-1,-1,-1,-1,-1,-1,-1],"loss_changes":[6.897681E0,5.1062574E0,1.3351439E1,1.0599815E1,1.1775224E1,6.955879E0,6.730375E0,0E0,0E0,0E0,0E0,0E0,0E0,0E0,0E0],"parents":[2147483647,0,0,1,1,2,2,3,3,4,4,5,5,6,6],"right_children":[2,4,6,8,10,12,14,-1,-1,-1,-1,-1,-1,-1,-1],"split_conditions":[1.5308096E0,-2.2997946E-1,1.5444578E0,-2.8260338E-1,7.690234E-1,1.3987192E0,1.2952299E0,-6.2306726E-4,-7.137872E-3,-4.1847434E-5,4.76416E-3,4.3386117E-2,-5.601898E-2,7.2561584E-2,-6.518816E-3],"split_indices":[2,3,2,3,8,0,8,0,0,0,0,0,0,0,0],"split_type":[0,0,0,0,0,0,0,0,0,0,0,0,0,0,0],"sum_hessian":[1.09899E5,1.09299E5,6E2,4.7134E4,6.2165E4,8.5E1,5.15E2,4.4489E4,2.645E3,5.6563E4,5.602E3,7E0,7.8E1,1E1,5.05E2],"tree_param":{"num_deleted":"0","num_feature":"10","num_nodes":"15","size_leaf_vector":"0"}},{"base_weights":[-6.202608E-3,1.1001479E-2,-8.848759E-3,7.1732104E-3,1.7877187E-1,-1.7885275E-1,-8.263373E-3,1.0996383E-2,-5.496649E-2,4.1146109E-1,5.8405057E-2,9.681856E-3,-4.602997E-1,2.610029E-1,-8.548176E-3],"categories":[],"categories_nodes":[],"categories_segments":[],"categories_sizes":[],"default_left":[1,1,1,1,1,1,1,0,0,0,0,0,0,0,0],"id":50,"left_children":[1,3,5,7,9,11,13,-1,-1,-1,-1,-1,-1,-1,-1],"loss_changes":[5.0368056E0,9.4715605E0,9.541214E0,3.4266126E0,9.19062E0,1.7462017E1,7.3306108E0,0E0,0E0,0E0,0E0,0E0,0E0,0E0,0E0],"parents":[2147483647,0,0,1,1,2,2,3,3,4,4,5,5,6,6],"right_children":[2,4,6,8,10,12,14,-1,-1,-1,-1,-1,-1,-1,-1],"split_conditions":[-9.323142E-1,-8.561046E-1,-9.1744435E-1,2.3915098E0,-1.10010505E-1,9.573577E-1,-9.127653E-1,1.0996383E-3,-5.496649E-3,4.114611E-2,5.840506E-3,9.6818566E-4,-4.602997E-2,2.6100291E-2,-8.548176E-4],"split_indices":[4,3,4,5,5,5,4,0,0,0,0,0,0,0,0],"split_type":[0,0,0,0,0,0,0,0,0,0,0,0,0,0,0],"sum_hessian":[1.10636E5,1.4748E4,9.5888E4,1.442E4,3.28E2,3.28E2,9.556E4,1.3585E4,8.35E2,1.11E2,2.17E2,1.97E2,1.31E2,1E2,9.546E4],"tree_param":{"num_deleted":"0","num_feature":"10","num_nodes":"15","size_leaf_vector":"0"}},{"base_weights":[-5.0595E-3,-2.3141742E-2,-2.975337E-3,-1.9064078E-2,-1.3289215E-1,1.219522E-2,-5.780017E-3,-1.8079951E-2,-1.0975304E0,-3.3898944E-1,5.6092804E-3,3.844088E-1,1.0862585E-2,-1.0647771E-2,5.738172E-3],"categories":[],"categories_nodes":[],"categories_segments":[],"categories_sizes":[],"default_left":[1,1,1,1,1,1,1,0,0,0,0,0,0,0,0],"id":51,"left_children":[1,3,5,7,9,11,13,-1,-1,-1,-1,-1,-1,-1,-1],"loss_changes":[4.15485E0,5.096571E0,4.2062936E0,1.1641166E1,1.1648168E1,7.647011E0,4.6779585E0,0E0,0E0,0E0,0E0,0E0,0E0,0E0,0E0],"parents":[2147483647,0,0,1,1,2,2,3,3,4,4,5,5,6,6],"right_children":[2,4,6,8,10,12,14,-1,-1,-1,-1,-1,-1,-1,-1],"split_conditions":[-1.1034213E0,2.9771128E0,-6.328662E-1,-1.1037309E0,-6.0129976E-1,-1.1011431E0,7.179388E-1,-1.8079951E-3,-1.09753035E-1,-3.3898946E-2,5.609281E-4,3.844088E-2,1.0862586E-3,-1.0647771E-3,5.7381723E-4],"split_indices":[2,1,0,2,3,2,2,0,0,0,0,0,0,0,0],"split_type":[0,0,0,0,0,0,0,0,0,0,0,0,0,0,0],"sum_hessian":[1.10249E5,1.1393E4,9.8856E4,1.0986E4,4.07E2,1.5424E4,8.3432E4,1.0977E4,9E0,1.63E2,2.44E2,5.4E1,1.537E4,5.8647E4,2.4785E4],"tree_param":{"num_deleted":"0","num_feature":"10","num_nodes":"15","size_leaf_vector":"0"}},{"base_weights":[-2.0816159E-3,4.0546614E-3,-1.2450298E-2,1.980094E-3,8.564674E-2,-1.3920431E-2,1.16406485E-1,2.2393012E-1,1.4284728E-3,1.6659923E-1,2.0064346E-2,-4.214523E-1,-1.3478625E-2,-1.2084058E-1,2.1514563E-1],"categories":[],"categories_nodes":[],"categories_segments":[],"categories_sizes":[],"default_left":[1,1,1,1,1,1,1,0,0,0,0,0,0,0,0],"id":52,"left_children":[1,3,5,7,9,11,13,-1,-1,-1,-1,-1,-1,-1,-1],"loss_changes":[7.0377502E0,1.1762113E1,7.7920146E0,8.296551E0,9.144165E0,7.3153534E0,1.0895464E1,0E0,0E0,0E0,0E0,0E0,0E0,0E0,0E0],"parents":[2147483647,0,0,1,1,2,2,3,3,4,4,5,5,6,6],"right_children":[2,4,6,8,10,12,14,-1,-1,-1,-1,-1,-1,-1,-1],"split_conditions":[1.283644E-1,8.725155E-2,2.3864367E0,-1.4471402E0,1.051247E-1,1.2938227E-1,4.1861683E-1,2.2393012E-2,1.4284729E-4,1.6659923E-2,2.0064346E-3,-4.2145234E-2,-1.3478625E-3,-1.20840585E-2,2.1514563E-2],"split_indices":[1,1,4,7,1,1,1,0,0,0,0,0,0,0,0],"split_type":[0,0,0,0,0,0,0,0,0,0,0,0,0,0,0],"sum_hessian":[1.10611E5,6.9488E4,4.1123E4,6.7766E4,1.722E3,4.066E4,4.63E2,1.67E2,6.7599E4,7.7E2,9.52E2,4.3E1,4.0617E4,1.36E2,3.27E2],"tree_param":{"num_deleted":"0","num_feature":"10","num_nodes":"15","size_leaf_vector":"0"}},{"base_weights":[-6.755695E-3,-2.2168541E-3,-2.2041116E-2,-2.57635E-3,4.181331E-1,-5.164342E-2,-1.3578123E-2,-2.1417531E-1,-1.8798778E-3,2.1998733E-1,1.0113571E0,4.9891196E-2,-8.615147E-2,-2.482403E-2,3.2463048E-2],"categories":[],"categories_nodes":[],"categories_segments":[],"categories_sizes":[],"default_left":[1,1,1,1,1,1,1,0,0,0,0,0,0,0,0],"id":53,"left_children":[1,3,5,7,9,11,13,-1,-1,-1,-1,-1,-1,-1,-1],"loss_changes":[7.686142E0,1.2909694E1,6.3538437E0,1.2578014E1,8.358289E0,1.9762012E1,1.0214949E1,0E0,0E0,0E0,0E0,0E0,0E0,0E0,0E0],"parents":[2147483647,0,0,1,1,2,2,3,3,4,4,5,5,6,6],"right_children":[2,4,6,8,10,12,14,-1,-1,-1,-1,-1,-1,-1,-1],"split_conditions":[6.544763E-1,6.519376E-1,7.258181E-1,-1.887861E0,1.8695638E-1,-3.4856737E-1,1.8018488E-2,-2.1417532E-2,-1.8798778E-4,2.1998733E-2,1.0113571E-1,4.9891197E-3,-8.615147E-3,-2.482403E-3,3.2463048E-3],"split_indices":[7,7,8,9,3,5,3,0,0,0,0,0,0,0,0],"split_type":[0,0,0,0,0,0,0,0,0,0,0,0,0,0,0],"sum_hessian":[1.10786E5,8.5422E4,2.5364E4,8.535E4,7.2E1,5.638E3,1.9726E4,2.79E2,8.5071E4,5.5E1,1.7E1,1.43E3,4.208E3,1.5854E4,3.872E3],"tree_param":{"num_deleted":"0","num_feature":"10","num_nodes":"15","size_leaf_vector":"0"}},{"base_weights":[-2.4726975E-3,-8.126849E-4,-3.803485E-2,-9.997739E-4,4.1722116E-1,-9.345913E-2,-1.588591E-2,-5.3378753E-3,1.2965889E-2,9.44825E-3,7.1892524E-1,-2.4704294E-1,-6.507812E-2,2.5635806E-1,-2.0701874E-2],"categories":[],"categories_nodes":[],"categories_segments":[],"categories_sizes":[],"default_left":[1,1,1,1,1,1,1,0,0,0,0,0,0,0,0],"id":54,"left_children":[1,3,5,7,9,11,13,-1,-1,-1,-1,-1,-1,-1,-1],"loss_changes":[6.4914236E0,8.217033E0,6.018611E0,6.362225E0,5.775464E0,6.0863314E0,4.600773E0,0E0,0E0,0E0,0E0,0E0,0E0,0E0,0E0],"parents":[2147483647,0,0,1,1,2,2,3,3,4,4,5,5,6,6],"right_children":[2,4,6,8,10,12,14,-1,-1,-1,-1,-1,-1,-1,-1],"split_conditions":[1.2548872E0,1.2530134E0,1.3178749E0,5.578821E-1,6.857158E-2,-2.8923233E0,1.3243363E0,-5.3378753E-4,1.2965889E-3,9.44825E-4,7.189252E-2,-2.4704294E-2,-6.5078116E-3,2.5635807E-2,-2.0701874E-3],"split_indices":[8,8,8,1,1,9,8,0,0,0,0,0,0,0,0],"split_type":[0,0,0,0,0,0,0,0,0,0,0,0,0,0,0],"sum_hessian":[1.09961E5,1.05058E5,4.903E3,1.05012E5,4.6E1,1.399E3,3.504E3,8.0124E4,2.4888E4,2E1,2.6E1,2.17E2,1.182E3,6E1,3.444E3],"tree_param":{"num_deleted":"0","num_feature":"10","num_nodes":"15","size_leaf_vector":"0"}},{"base_weights":[-2.703564E-3,-6.201424E-3,1.2550879E-2,-7.79653E-3,3.1918652E-2,2.9813567E-2,-3.3608389E-3,-7.686065E-3,-9.609413E-1,3.8112196E-1,2.6713796E-2,6.999471E-2,1.240673E-2,-9.5910184E-2,1.0823595E-2],"categories":[],"categories_nodes":[],"categories_segments":[],"categories_sizes":[],"default_left":[1,1,1,1,1,1,1,0,0,0,0,0,0,0,0],"id":55,"left_children":[1,3,5,7,9,11,13,-1,-1,-1,-1,-1,-1,-1,-1],"loss_changes":[5.9018893E0,5.4713516E0,5.6672773E0,9.085842E0,6.5584545E0,6.920659E0,1.4096144E1,0E0,0E0,0E0,0E0,0E0,0E0,0E0,0E0],"parents":[2147483647,0,0,1,1,2,2,3,3,4,4,5,5,6,6],"right_children":[2,4,6,8,10,12,14,-1,-1,-1,-1,-1,-1,-1,-1],"split_conditions":[8.2516146E-1,2.3321376E0,-3.4689504E-1,8.250202E-1,7.258027E-1,1.0522085E0,-2.1869719E-1,-7.686065E-4,-9.609413E-2,3.8112197E-2,2.6713796E-3,6.999471E-3,1.240673E-3,-9.591019E-3,1.0823596E-3],"split_indices":[2,9,3,2,1,2,3,0,0,0,0,0,0,0,0],"split_type":[0,0,0,0,0,0,0,0,0,0,0,0,0,0,0],"sum_hessian":[1.10607E5,8.9976E4,2.0631E4,8.6363E4,3.613E3,9.895E3,1.0736E4,8.6354E4,9E0,5.2E1,3.561E3,2.99E3,6.905E3,1.426E3,9.31E3],"tree_param":{"num_deleted":"0","num_feature":"10","num_nodes":"15","size_leaf_vector":"0"}},{"base_weights":[-7.1341754E-4,9.816622E-4,-2.4567444E-2,3.9626937E-3,-1.4770635E-2,-2.8314456E-1,-2.091607E-2,3.844461E-3,9.35922E-1,-4.2927283E-1,-1.3985602E-2,-3.5790944E-1,3.0741787E-1,3.6203456E-1,-2.6828675E-2],"categories":[],"categories_nodes":[],"categories_segments":[],"categories_sizes":[],"default_left":[1,1,1,1,1,1,1,0,0,0,0,0,0,0,0],"id":56,"left_children":[1,3,5,7,9,11,13,-1,-1,-1,-1,-1,-1,-1,-1],"loss_changes":[4.467872E0,4.8445373E0,6.915726E0,9.555227E0,5.336055E0,4.6136675E0,1.6380136E1,0E0,0E0,0E0,0E0,0E0,0E0,0E0,0E0],"parents":[2147483647,0,0,1,1,2,2,3,3,4,4,5,5,6,6],"right_children":[2,4,6,8,10,12,14,-1,-1,-1,-1,-1,-1,-1,-1],"split_conditions":[1.7176249E0,1.0125272E0,-2.6468506E0,1.0120809E0,-1.4723E0,1.6022667E-1,-6.095207E-1,3.844461E-4,9.3592204E-2,-4.2927284E-2,-1.3985602E-3,-3.5790946E-2,3.0741787E-2,3.6203455E-2,-2.6828675E-3],"split_indices":[4,7,7,7,0,0,0,0,0,0,0,0,0,0,0],"split_type":[0,0,0,0,0,0,0,0,0,0,0,0,0,0,0],"sum_hessian":[1.10495E5,1.03165E5,7.33E3,8.6749E4,1.6416E4,1.01E2,7.229E3,8.6739E4,1E1,3E1,1.6386E4,9E1,1.1E1,1.09E2,7.12E3],"tree_param":{"num_deleted":"0","num_feature":"10","num_nodes":"15","size_leaf_vector":"0"}},{"base_weights":[1.2312064E-4,-1.7204879E-2,4.2056334E-3,-2.2443991E-2,5.0810445E-2,5.0500646E-4,2.2941705E-2,-7.3439695E-2,-1.4678259E-2,-3.6105093E-1,6.464577E-2,3.0870088E-3,-4.644673E-2,8.3960004E-2,1.22321695E-2],"categories":[],"categories_nodes":[],"categories_segments":[],"categories_sizes":[],"default_left":[1,1,1,1,1,1,1,0,0,0,0,0,0,0,0],"id":57,"left_children":[1,3,5,7,9,11,13,-1,-1,-1,-1,-1,-1,-1,-1],"loss_changes":[7.7951093E0,7.4881973E0,6.183303E0,7.7248554E0,8.58779E0,9.028347E0,9.610975E0,0E0,0E0,0E0,0E0,0E0,0E0,0E0,0E0],"parents":[2147483647,0,0,1,1,2,2,3,3,4,4,5,5,6,6],"right_children":[2,4,6,8,10,12,14,-1,-1,-1,-1,-1,-1,-1,-1],"split_conditions":[-8.481836E-1,2.97819E0,4.6301514E-1,7.4469984E-1,-1.6187913E0,3.642266E-1,-7.478169E-1,-7.34397E-3,-1.467826E-3,-3.6105093E-2,6.464577E-3,3.087009E-4,-4.644673E-3,8.396001E-3,1.223217E-3],"split_indices":[9,3,2,2,7,2,9,0,0,0,0,0,0,0,0],"split_type":[0,0,0,0,0,0,0,0,0,0,0,0,0,0,0],"sum_hessian":[1.10189E5,2.101E4,8.9179E4,1.9508E4,1.502E3,7.4471E4,1.4708E4,2.577E3,1.6931E4,4.8E1,1.454E3,7.059E4,3.881E3,2.195E3,1.2513E4],"tree_param":{"num_deleted":"0","num_feature":"10","num_nodes":"15","size_leaf_vector":"0"}},{"base_weights":[-2.1270593E-3,-5.6188955E-4,-5.6467406E-2,-1.6271496E-3,7.4530475E-2,2.8901223E-2,-8.198993E-2,-2.1728944E-2,1.3294104E-3,8.3651495E-1,6.8360224E-2,-4.2324107E-2,3.1360045E-1,-4.0025488E-2,-1.7826737E-1],"categories":[],"categories_nodes":[],"categories_segments":[],"categories_sizes":[],"default_left":[1,1,1,1,1,1,1,0,0,0,0,0,0,0,0],"id":58,"left_children":[1,3,5,7,9,11,13,-1,-1,-1,-1,-1,-1,-1,-1],"loss_changes":[9.41453E0,8.606876E0,6.7545395E0,6.3051867E0,7.01877E0,1.4491618E1,9.632853E0,0E0,0E0,0E0,0E0,0E0,0E0,0E0,0E0],"parents":[2147483647,0,0,1,1,2,2,3,3,4,4,5,5,6,6],"right_children":[2,4,6,8,10,12,14,-1,-1,-1,-1,-1,-1,-1,-1],"split_conditions":[2.9404883E0,2.551443E0,-5.062435E-1,-8.988013E-1,8.7919027E-1,-9.287747E-1,8.571409E-1,-2.1728945E-3,1.3294104E-4,8.36515E-2,6.8360227E-3,-4.232411E-3,3.1360045E-2,-4.0025488E-3,-1.7826738E-2],"split_indices":[1,7,5,3,8,6,8,0,0,0,0,0,0,0,0],"split_type":[0,0,0,0,0,0,0,0,0,0,0,0,0,0,0],"sum_hessian":[1.10691E5,1.07593E5,3.098E3,1.06089E5,1.504E3,7.13E2,2.385E3,1.3602E4,9.2487E4,1.1E1,1.493E3,5.71E2,1.42E2,1.662E3,7.23E2],"tree_param":{"num_deleted":"0","num_feature":"10","num_nodes":"15","size_leaf_vector":"0"}},{"base_weights":[-2.4273882E-3,-6.506171E-2,-1.1087059E-3,-5.9976656E-2,-9.4837624E-1,1.3940372E-2,-5.1201163E-3,-7.6447316E-2,8.170168E-2,-1.3620217E-1,-1.0836623E0,1.608707E-2,-2.7219543E-1,-5.0333124E-2,-2.7281016E-3],"categories":[],"categories_nodes":[],"categories_segments":[],"categories_sizes":[],"default_left":[1,1,1,1,1,1,1,0,0,0,0,0,0,0,0],"id":59,"left_children":[1,3,5,7,9,11,13,-1,-1,-1,-1,-1,-1,-1,-1],"loss_changes":[9.144903E0,1.0197669E1,6.5463195E0,5.305705E0,1.2807875E0,1.4022728E1,9.259465E0,0E0,0E0,0E0,0E0,0E0,0E0,0E0,0E0],"parents":[2147483647,0,0,1,1,2,2,3,3,4,4,5,5,6,6],"right_children":[2,4,6,8,10,12,14,-1,-1,-1,-1,-1,-1,-1,-1],"split_conditions":[-2.3555493E0,-2.3584852E0,-6.857103E-1,-8.963536E-1,1.1367655E0,-3.14164E-1,-8.093879E-1,-7.6447316E-3,8.170168E-3,-1.3620217E-2,-1.0836623E-1,1.608707E-3,-2.7219543E-2,-5.0333124E-3,-2.7281017E-4],"split_indices":[7,7,7,8,1,8,8,0,0,0,0,0,0,0,0],"split_type":[0,0,0,0,0,0,0,0,0,0,0,0,0,0,0],"sum_hessian":[1.1072E5,2.282E3,1.08438E5,2.27E3,1.2E1,2.2821E4,8.5617E4,2.034E3,2.36E2,2E0,1E1,2.2652E4,1.69E2,4.301E3,8.1316E4],"tree_param":{"num_deleted":"0","num_feature":"10","num_nodes":"15","size_leaf_vector":"0"}},{"base_weights":[-2.6332508E-3,-3.7254074E-3,3.7000906E-2,-4.8039433E-1,-3.601172E-3,4.5008842E-2,-2.4480234E-1,1.9755173E-1,-1.0012009E0,-3.7844226E-2,-2.1464808E-3,3.9178677E-2,4.5811695E-1,3.761559E-1,-3.3627093E-1],"categories":[],"categories_nodes":[],"categories_segments":[],"categories_sizes":[],"default_left":[1,1,1,1,1,1,1,0,0,0,0,0,0,0,0],"id":60,"left_children":[1,3,5,7,9,11,13,-1,-1,-1,-1,-1,-1,-1,-1],"loss_changes":[4.7811112E0,6.3636165E0,6.695253E0,1.0083993E1,5.352881E0,6.920909E0,4.7839413E0,0E0,0E0,0E0,0E0,0E0,0E0,0E0,0E0],"parents":[2147483647,0,0,1,1,2,2,3,3,4,4,5,5,6,6],"right_children":[2,4,6,8,10,12,14,-1,-1,-1,-1,-1,-1,-1,-1],"split_conditions":[2.501864E0,-2.4037738E0,2.876168E0,1.2127652E0,-1.6350157E0,-7.571858E-2,-1.342663E0,1.9755173E-2,-1.0012009E-1,-3.7844225E-3,-2.1464808E-4,3.917868E-3,4.5811694E-2,3.7615594E-2,-3.3627093E-2],"split_indices":[9,0,3,1,0,8,8,0,0,0,0,0,0,0,0],"split_type":[0,0,0,0,0,0,0,0,0,0,0,0,0,0,0],"sum_hessian":[1.10448E5,1.07487E5,2.961E3,2.7E1,1.0746E5,2.88E3,8.1E1,1.2E1,1.5E1,4.378E3,1.03082E5,2.841E3,3.9E1,1E1,7.1E1],"tree_param":{"num_deleted":"0","num_feature":"10","num_nodes":"15","size_leaf_vector":"0"}},{"base_weights":[-2.1995506E-3,-9.158321E-3,6.27193E-3,-8.665775E-3,-1.6486818E-1,3.9819147E-2,1.5833651E-3,-1.9654287E-2,-3.8944446E-3,-1.8300326E-1,7.2869754E-1,7.6234125E-2,6.0583553E-3,3.5472345E-3,-6.3930154E-2],"categories":[],"categories_nodes":[],"categories_segments":[],"categories_sizes":[],"default_left":[1,1,1,1,1,1,1,0,0,0,0,0,0,0,0],"id":61,"left_children":[1,3,5,7,9,11,13,-1,-1,-1,-1,-1,-1,-1,-1],"loss_changes":[6.5058994E0,4.645471E0,7.8283324E0,3.166685E0,3.228487E0,7.502557E0,5.6186795E0,0E0,0E0,0E0,0E0,0E0,0E0,0E0,0E0],"parents":[2147483647,0,0,1,1,2,2,3,3,4,4,5,5,6,6],"right_children":[2,4,6,8,10,12,14,-1,-1,-1,-1,-1,-1,-1,-1],"split_conditions":[5.1776327E-2,4.709386E-2,1.8230322E-1,-9.0792024E-1,2.9319396E0,6.8444085E-1,7.6223576E-1,-1.9654287E-3,-3.8944447E-4,-1.8300327E-2,7.2869755E-2,7.6234126E-3,6.058355E-4,3.5472345E-4,-6.3930154E-3],"split_indices":[7,7,7,8,3,4,4,0,0,0,0,0,0,0,0],"split_type":[0,0,0,0,0,0,0,0,0,0,0,0,0,0,0],"sum_hessian":[1.10359E5,6.0589E4,4.977E4,6.0399E4,1.9E2,6.102E3,4.3668E4,1.8285E4,4.2114E4,1.87E2,3E0,2.935E3,3.167E3,4.2398E4,1.27E3],"tree_param":{"num_deleted":"0","num_feature":"10","num_nodes":"15","size_leaf_vector":"0"}},{"base_weights":[8.890283E-4,-3.956752E-4,4.2615443E-2,-2.457292E-4,-3.1422484E-1,6.161252E-1,3.7855364E-2,4.418509E-3,-8.162458E-3,-4.5599896E-1,6.420696E-1,6.9088763E-1,1.4899307E-1,5.8678072E-2,-5.0093684E-2],"categories":[],"categories_nodes":[],"categories_segments":[],"categories_sizes":[],"default_left":[1,1,1,1,1,1,1,0,0,0,0,0,0,0,0],"id":62,"left_children":[1,3,5,7,9,11,13,-1,-1,-1,-1,-1,-1,-1,-1],"loss_changes":[5.9009733E0,5.025326E0,8.952761E0,3.9415762E0,7.2072515E0,8.400078E-1,5.9767613E0,0E0,0E0,0E0,0E0,0E0,0E0,0E0,0E0],"parents":[2147483647,0,0,1,1,2,2,3,3,4,4,5,5,6,6],"right_children":[2,4,6,8,10,12,14,-1,-1,-1,-1,-1,-1,-1,-1],"split_conditions":[1.3445575E0,1.341571E0,1.3462029E0,2.9524142E-1,2.4834056E0,-3.7124583E-1,1.5269605E0,4.4185092E-4,-8.1624585E-4,-4.5599896E-2,6.420696E-2,6.9088764E-2,1.4899308E-2,5.867807E-3,-5.0093685E-3],"split_indices":[2,2,2,5,1,4,2,0,0,0,0,0,0,0,0],"split_type":[0,0,0,0,0,0,0,0,0,0,0,0,0,0,0],"sum_hessian":[1.10079E5,1.06792E5,3.287E3,1.06742E5,5E1,2.6E1,3.261E3,6.7169E4,3.9573E4,4.4E1,6E0,2.2E1,4E0,2.637E3,6.24E2],"tree_param":{"num_deleted":"0","num_feature":"10","num_nodes":"15","size_leaf_vector":"0"}},{"base_weights":[-3.8531053E-4,-2.5263602E-2,4.056436E-3,-4.5591448E-2,8.794335E-3,1.0492059E-1,2.9601257E-3,-4.6973214E-2,2.3653233E-1,6.668406E-1,4.9664457E-3,1.3934712E-1,-1.0480187E-1,4.4452823E-3,-8.302068E-2],"categories":[],"categories_nodes":[],"categories_segments":[],"categories_sizes":[],"default_left":[1,1,1,1,1,1,1,0,0,0,0,0,0,0,0],"id":63,"left_children":[1,3,5,7,9,11,13,-1,-1,-1,-1,-1,-1,-1,-1],"loss_changes":[1.2148698E1,1.1531068E1,1.0314997E1,4.0770245E0,1.5679534E1,7.256279E0,1.1784445E1,0E0,0E0,0E0,0E0,0E0,0E0,0E0,0E0],"parents":[2147483647,0,0,1,1,2,2,3,3,4,4,5,5,6,6],"right_children":[2,4,6,8,10,12,14,-1,-1,-1,-1,-1,-1,-1,-1],"split_conditions":[-7.9729974E-1,2.8444004E-1,-8.542582E-1,2.3349273E0,2.956571E-1,9.996537E-1,2.9987793E0,-4.6973214E-3,2.3653233E-2,6.668406E-2,4.966446E-4,1.3934712E-2,-1.0480187E-2,4.4452824E-4,-8.302068E-3],"split_indices":[5,4,6,3,4,4,0,0,0,0,0,0,0,0,0],"split_type":[0,0,0,0,0,0,0,0,0,0,0,0,0,0,0],"sum_hessian":[1.09938E5,1.6654E4,9.3284E4,1.0429E4,6.225E3,1.002E3,9.2282E4,1.0379E4,5E1,3.5E1,6.19E3,8.61E2,1.41E2,9.0716E4,1.566E3],"tree_param":{"num_deleted":"0","num_feature":"10","num_nodes":"15","size_leaf_vector":"0"}},{"base_weights":[4.8007866E-4,-8.605184E-4,3.618483E-2,1.5897626E-3,-1.8232882E-2,3.3206984E-1,3.1885255E-2,1.7790603E-2,-5.2342983E-3,-6.288748E-2,1.3464823E-3,6.7775047E-1,2.028124E-2,2.792571E-2,4.5951033E-1],"categories":[],"categories_nodes":[],"categories_segments":[],"categories_sizes":[],"default_left":[1,1,1,1,1,1,1,0,0,0,0,0,0,0,0],"id":64,"left_children":[1,3,5,7,9,11,13,-1,-1,-1,-1,-1,-1,-1,-1],"loss_changes":[5.2735853E0,4.520152E0,5.061593E0,1.0288721E1,1.1476261E1,6.129673E0,6.643141E0,0E0,0E0,0E0,0E0,0E0,0E0,0E0,0E0],"parents":[2147483647,0,0,1,1,2,2,3,3,4,4,5,5,6,6],"right_children":[2,4,6,8,10,12,14,-1,-1,-1,-1,-1,-1,-1,-1],"split_conditions":[1.3152485E0,1.0093749E0,9.062907E-1,-2.0029965E-1,3.6675096E-1,-2.9396272E-1,1.1160147E0,1.7790602E-3,-5.2342983E-4,-6.2887482E-3,1.3464823E-4,6.777505E-2,2.0281242E-3,2.792571E-3,4.5951035E-2],"split_indices":[2,7,8,9,1,4,5,0,0,0,0,0,0,0,0],"split_type":[0,0,0,0,0,0,0,0,0,0,0,0,0,0,0],"sum_hessian":[1.10173E5,1.06187E5,3.986E3,9.3062E4,1.3125E4,5.6E1,3.93E3,2.7581E4,6.5481E4,4E3,9.125E3,2.6E1,3E1,3.895E3,3.5E1],"tree_param":{"num_deleted":"0","num_feature":"10","num_nodes":"15","size_leaf_vector":"0"}},{"base_weights":[-2.5826986E-3,3.7608918E-2,-4.153993E-3,3.418933E-2,4.4072977E-1,-3.0322755E-3,-5.895266E-2,4.444414E-2,-2.6329926E-1,6.515286E-1,-1.7595436E-2,-3.4188044E-3,1.3174592E-1,-9.5028974E-2,6.73625E-2],"categories":[],"categories_nodes":[],"categories_segments":[],"categories_sizes":[],"default_left":[1,1,1,1,1,1,1,0,0,0,0,0,0,0,0],"id":65,"left_children":[1,3,5,7,9,11,13,-1,-1,-1,-1,-1,-1,-1,-1],"loss_changes":[7.001092E0,5.7346864E0,6.5577226E0,1.26324005E1,3.3929691E0,5.44695E0,9.758351E0,0E0,0E0,0E0,0E0,0E0,0E0,0E0,0E0],"parents":[2147483647,0,0,1,1,2,2,3,3,4,4,5,5,6,6],"right_children":[2,4,6,8,10,12,14,-1,-1,-1,-1,-1,-1,-1,-1],"split_conditions":[-1.9384924E0,2.5178844E-1,2.7642486E0,2.2142754E0,-7.5079626E-1,1.5617712E0,-5.0421673E-1,4.4444143E-3,-2.6329925E-2,6.515286E-2,-1.7595437E-3,-3.4188046E-4,1.31745925E-2,-9.502898E-3,6.73625E-3],"split_indices":[7,6,7,5,2,2,4,0,0,0,0,0,0,0,0],"split_type":[0,0,0,0,0,0,0,0,0,0,0,0,0,0,0],"sum_hessian":[1.10856E5,4.17E3,1.06686E5,4.136E3,3.4E1,1.04547E5,2.139E3,3.999E3,1.37E2,2.3E1,1.1E1,1.04249E5,2.98E2,1.664E3,4.75E2],"tree_param":{"num_deleted":"0","num_feature":"10","num_nodes":"15","size_leaf_vector":"0"}},{"base_weights":[-1.959327E-3,-1.3026198E-2,1.7800784E-3,-1.2511951E-2,-5.645108E-1,5.17992E-4,6.902417E-2,-1.658182E-2,4.2676657E-2,-7.4057573E-1,-7.579279E-2,4.507607E-2,-1.2002393E-3,3.6148485E-2,3.4499735E-1],"categories":[],"categories_nodes":[],"categories_segments":[],"categories_sizes":[],"default_left":[1,1,1,1,1,1,1,0,0,0,0,0,0,0,0],"id":66,"left_children":[1,3,5,7,9,11,13,-1,-1,-1,-1,-1,-1,-1,-1],"loss_changes":[4.5770817E0,7.914728E0,7.0159044E0,6.2691364E0,2.1810684E0,6.2127566E0,1.3805416E1,0E0,0E0,0E0,0E0,0E0,0E0,0E0,0E0],"parents":[2147483647,0,0,1,1,2,2,3,3,4,4,5,5,6,6],"right_children":[2,4,6,8,10,12,14,-1,-1,-1,-1,-1,-1,-1,-1],"split_conditions":[-5.6381917E-1,-5.6398034E-1,2.1015248E0,2.520053E0,4.533485E-1,-1.0630722E0,-6.744925E-1,-1.658182E-3,4.267666E-3,-7.405757E-2,-7.579279E-3,4.507607E-3,-1.2002393E-4,3.6148485E-3,3.4499735E-2],"split_indices":[6,6,4,1,8,1,8,0,0,0,0,0,0,0,0],"split_type":[0,0,0,0,0,0,0,0,0,0,0,0,0,0,0],"sum_hessian":[1.106E5,2.7932E4,8.2668E4,2.7907E4,2.5E1,8.1146E4,1.522E3,2.5991E4,1.916E3,1.8E1,7E0,3.012E3,7.8134E4,1.361E3,1.61E2],"tree_param":{"num_deleted":"0","num_feature":"10","num_nodes":"15","size_leaf_vector":"0"}},{"base_weights":[1.2663832E-3,-6.822201E-4,2.2006836E-2,-3.6939366E-3,1.6031258E-2,1.5021048E-1,1.0900871E-2,-3.2876043E-3,-2.4462049E-1,5.1531536E-3,8.811163E-2,2.64995E-1,3.350006E-2,1.36759095E-2,-3.1833765E-1],"categories":[],"categories_nodes":[],"categories_segments":[],"categories_sizes":[],"default_left":[1,1,1,1,1,1,1,0,0,0,0,0,0,0,0],"id":67,"left_children":[1,3,5,7,9,11,13,-1,-1,-1,-1,-1,-1,-1,-1],"loss_changes":[4.4629936E0,5.081303E0,1.3501921E1,8.372652E0,1.2084845E1,1.0118916E1,7.979602E0,0E0,0E0,0E0,0E0,0E0,0E0,0E0,0E0],"parents":[2147483647,0,0,1,1,2,2,3,3,4,4,5,5,6,6],"right_children":[2,4,6,8,10,12,14,-1,-1,-1,-1,-1,-1,-1,-1],"split_conditions":[1.9573876E0,1.3088975E0,3.744017E-1,1.293256E0,2.9033166E-1,1.8231564E0,9.954667E-1,-3.2876045E-4,-2.446205E-2,5.153154E-4,8.811164E-3,2.64995E-2,3.3500062E-3,1.367591E-3,-3.1833764E-2],"split_indices":[3,6,4,6,3,7,2,0,0,0,0,0,0,0,0],"split_type":[0,0,0,0,0,0,0,0,0,0,0,0,0,0,0],"sum_hessian":[1.10428E5,1.00945E5,9.483E3,8.5533E4,1.5412E4,7.55E2,8.728E3,8.539E4,1.43E2,1.3392E4,2.02E3,3.8E2,3.75E2,8.656E3,7.2E1],"tree_param":{"num_deleted":"0","num_feature":"10","num_nodes":"15","size_leaf_vector":"0"}},{"base_weights":[1.184616E-3,2.1771132E-3,-5.475885E-2,1.9082722E-3,4.9834326E-1,-1.9100882E-1,-3.6608E-2,1.9549303E-2,-1.3571699E-3,6.1646235E-1,-7.312747E-2,-2.4209595E-1,3.4984776E-1,-4.4850968E-2,3.5845178E-1],"categories":[],"categories_nodes":[],"categories_segments":[],"categories_sizes":[],"default_left":[1,1,1,1,1,1,1,0,0,0,0,0,0,0,0],"id":68,"left_children":[1,3,5,7,9,11,13,-1,-1,-1,-1,-1,-1,-1,-1],"loss_changes":[6.156979E0,1.4532536E1,4.7734184E0,6.2731214E0,4.0276756E0,6.3568916E0,5.574862E0,0E0,0E0,0E0,0E0,0E0,0E0,0E0,0E0],"parents":[2147483647,0,0,1,1,2,2,3,3,4,4,5,5,6,6],"right_children":[2,4,6,8,10,12,14,-1,-1,-1,-1,-1,-1,-1,-1],"split_conditions":[1.4194322E0,1.4158361E0,1.4346931E0,-7.727383E-1,-5.625433E-1,-5.6767035E-1,3.1919003E-1,1.9549304E-3,-1.35717E-4,6.1646234E-2,-7.312747E-3,-2.4209594E-2,3.498478E-2,-4.485097E-3,3.584518E-2],"split_indices":[2,2,2,6,4,6,5,0,0,0,0,0,0,0,0],"split_type":[0,0,0,0,0,0,0,0,0,0,0,0,0,0,0],"sum_hessian":[1.10886E5,1.08954E5,1.932E3,1.08896E5,5.8E1,2.26E2,1.706E3,1.7008E4,9.1888E4,4.8E1,1E1,2.07E2,1.9E1,1.672E3,3.4E1],"tree_param":{"num_deleted":"0","num_feature":"10","num_nodes":"15","size_leaf_vector":"0"}},{"base_weights":[-2.1308765E-3,3.977309E-2,-3.4694013E-3,-3.247791E-2,5.803984E-2,3.0689368E-2,-5.1732813E-3,-6.6162944E-1,-1.656092E-2,5.5347644E-2,6.1583006E-1,2.1096496E-2,1.318244E-1,-4.612442E-3,-2.064586E-1],"categories":[],"categories_nodes":[],"categories_segments":[],"categories_sizes":[],"default_left":[1,1,1,1,1,1,1,0,0,0,0,0,0,0,0],"id":69,"left_children":[1,3,5,7,9,11,13,-1,-1,-1,-1,-1,-1,-1,-1],"loss_changes":[6.1898937E0,4.5102906E0,6.224329E0,6.898841E0,4.060998E0,4.926679E0,1.14978895E1,0E0,0E0,0E0,0E0,0E0,0E0,0E0,0E0],"parents":[2147483647,0,0,1,1,2,2,3,3,4,4,5,5,6,6],"right_children":[2,4,6,8,10,12,14,-1,-1,-1,-1,-1,-1,-1,-1],"split_conditions":[-1.3650267E0,-2.8147614E0,-1.1497887E0,1.1657262E0,-9.884441E-1,3.9456236E-1,2.7335367E0,-6.6162944E-2,-1.656092E-3,5.5347644E-3,6.158301E-2,2.1096496E-3,1.3182441E-2,-4.6124423E-4,-2.064586E-2],"split_indices":[2,0,1,1,8,2,4,0,0,0,0,0,0,0,0],"split_type":[0,0,0,0,0,0,0,0,0,0,0,0,0,0,0],"sum_hessian":[1.10354E5,3.415E3,1.06939E5,6.89E2,2.726E3,5.08E3,1.01859E5,1.6E1,6.73E2,2.714E3,1.2E1,4.641E3,4.39E2,1.01577E5,2.82E2],"tree_param":{"num_deleted":"0","num_feature":"10","num_nodes":"15","size_leaf_vector":"0"}},{"base_weights":[-1.5924984E-3,2.984932E-3,-1.2288099E-2,1.138574E-3,5.8764506E-2,-8.4416844E-2,-9.209434E-3,1.6506583E-3,-2.0725521E-1,8.340685E-1,5.527523E-2,-1.3318713E-1,-1.4868399E-2,1.9548908E-2,-1.9763365E-2],"categories":[],"categories_nodes":[],"categories_segments":[],"categories_sizes":[],"default_left":[1,1,1,1,1,1,1,0,0,0,0,0,0,0,0],"id":70,"left_children":[1,3,5,7,9,11,13,-1,-1,-1,-1,-1,-1,-1,-1],"loss_changes":[5.391674E0,7.942655E0,7.3285427E0,7.9668455E0,6.638569E0,4.580474E0,9.608411E0,0E0,0E0,0E0,0E0,0E0,0E0,0E0,0E0],"parents":[2147483647,0,0,1,1,2,2,3,3,4,4,5,5,6,6],"right_children":[2,4,6,8,10,12,14,-1,-1,-1,-1,-1,-1,-1,-1],"split_conditions":[4.4429225E-1,3.791756E-1,4.8036665E-1,3.7481326E-1,3.7943062E-1,2.0609307E-1,-7.3313177E-1,1.6506584E-4,-2.0725522E-2,8.340685E-2,5.5275233E-3,-1.3318713E-2,-1.48684E-3,1.9548908E-3,-1.9763366E-3],"split_indices":[0,0,0,0,0,3,6,0,0,0,0,0,0,0,0],"split_type":[0,0,0,0,0,0,0,0,0,0,0,0,0,0,0],"sum_hessian":[1.10126E5,7.7121E4,3.3005E4,7.4651E4,2.47E3,1.35E3,3.1655E4,7.4469E4,1.82E2,1E1,2.46E3,7.93E2,5.57E2,8.498E3,2.3157E4],"tree_param":{"num_deleted":"0","num_feature":"10","num_nodes":"15","size_leaf_vector":"0"}},{"base_weights":[-3.4905183E-3,6.1009806E-3,-8.043216E-3,4.2810775E-3,1.7275314E-1,-7.827965E-4,-1.770891E-2,4.7079846E-3,-8.296116E-1,9.651609E-1,1.2656271E-1,-2.7089547E-3,1.2025299E-1,-5.0397534E-2,-5.838787E-3],"categories":[],"categories_nodes":[],"categories_segments":[],"categories_sizes":[],"default_left":[1,1,1,1,1,1,1,0,0,0,0,0,0,0,0],"id":71,"left_children":[1,3,5,7,9,11,13,-1,-1,-1,-1,-1,-1,-1,-1],"loss_changes":[4.822829E0,1.0781246E1,5.2558923E0,1.2523175E1,1.3932881E1,9.971471E0,1.2465171E1,0E0,0E0,0E0,0E0,0E0,0E0,0E0,0E0],"parents":[2147483647,0,0,1,1,2,2,3,3,4,4,5,5,6,6],"right_children":[2,4,6,8,10,12,14,-1,-1,-1,-1,-1,-1,-1,-1],"split_conditions":[-4.307222E-1,3.1687847E-1,6.0277734E-2,3.008924E-1,3.3857873E-1,3.8167313E-2,-4.2100674E-1,4.7079846E-4,-8.2961164E-2,9.6516095E-2,1.2656271E-2,-2.7089549E-4,1.20252995E-2,-5.0397534E-3,-5.838787E-4],"split_indices":[4,3,5,3,3,5,9,0,0,0,0,0,0,0,0],"split_type":[0,0,0,0,0,0,0,0,0,0,0,0,0,0,0],"sum_hessian":[1.10443E5,3.5549E4,7.4894E4,3.5166E4,3.83E2,4.2769E4,3.2125E4,3.5149E4,1.7E1,2E1,3.63E2,4.21E4,6.69E2,8.557E3,2.3568E4],"tree_param":{"num_deleted":"0","num_feature":"10","num_nodes":"15","size_leaf_vector":"0"}},{"base_weights":[6.5266347E-4,-3.143722E-2,2.067454E-3,-1.0570597E-2,-1.834997E-1,9.823516E-4,3.8422313E-2,-4.173169E-2,3.5620656E-2,-2.1378525E-1,1.5290117E-1,-5.9156537E-2,1.97689E-3,2.4363202E-1,2.8947677E-2],"categories":[],"categories_nodes":[],"categories_segments":[],"categories_sizes":[],"default_left":[1,1,1,1,1,1,1,0,0,0,0,0,0,0,0],"id":72,"left_children":[1,3,5,7,9,11,13,-1,-1,-1,-1,-1,-1,-1,-1],"loss_changes":[5.0080986E0,1.4778033E1,4.1677613E0,5.8985853E0,5.7583942E0,6.1360703E0,5.946356E0,0E0,0E0,0E0,0E0,0E0,0E0,0E0,0E0],"parents":[2147483647,0,0,1,1,2,2,3,3,4,4,5,5,6,6],"right_children":[2,4,6,8,10,12,14,-1,-1,-1,-1,-1,-1,-1,-1],"split_conditions":[-1.3152546E0,-4.1754487E-1,2.0587854E0,-7.366778E-1,2.0960069E0,-1.3212197E0,8.69402E-1,-4.173169E-3,3.5620655E-3,-2.1378525E-2,1.5290118E-2,-5.915654E-3,1.97689E-4,2.4363203E-2,2.8947678E-3],"split_indices":[2,6,9,6,1,8,1,0,0,0,0,0,0,0,0],"split_type":[0,0,0,0,0,0,0,0,0,0,0,0,0,0,0],"sum_hessian":[1.10307E5,4.657E3,1.0565E5,4.096E3,5.61E2,1.02589E5,3.061E3,2.446E3,1.65E3,5.15E2,4.6E1,1.668E3,1.00921E5,1.34E2,2.927E3],"tree_param":{"num_deleted":"0","num_feature":"10","num_nodes":"15","size_leaf_vector":"0"}},{"base_weights":[-1.800796E-3,-2.2479857E-3,1.0356363E-1,-2.0633691E-3,-2.2774039E-1,7.368296E-2,7.677124E-1,4.950924E-4,-1.6807761E-2,-4.5137233E-1,2.3456924E-1,9.407188E-2,-9.3129563E-1,1.0084921E0,1.7647974E-1],"categories":[],"categories_nodes":[],"categories_segments":[],"categories_sizes":[],"default_left":[1,1,1,1,1,1,1,0,0,0,0,0,0,0,0],"id":73,"left_children":[1,3,5,7,9,11,13,-1,-1,-1,-1,-1,-1,-1,-1],"loss_changes":[5.2064757E0,4.579956E0,9.211145E0,4.1472335E0,9.410726E0,9.26732E0,2.669159E0,0E0,0E0,0E0,0E0,0E0,0E0,0E0,0E0],"parents":[2147483647,0,0,1,1,2,2,3,3,4,4,5,5,6,6],"right_children":[2,4,6,8,10,12,14,-1,-1,-1,-1,-1,-1,-1,-1],"split_conditions":[1.5538533E0,2.9525344E0,-8.483808E-1,1.0729E0,-9.791328E-1,-8.981105E-1,-7.4448544E-1,4.9509243E-5,-1.6807761E-3,-4.5137234E-2,2.3456924E-2,9.407188E-3,-9.312957E-2,1.0084921E-1,1.7647974E-2],"split_indices":[2,4,5,0,5,5,5,0,0,0,0,0,0,0,0],"split_type":[0,0,0,0,0,0,0,0,0,0,0,0,0,0,0],"sum_hessian":[1.10493E5,1.10027E5,4.66E2,1.09938E5,8.9E1,4.47E2,1.9E1,9.3683E4,1.6255E4,6E1,2.9E1,4.39E2,8E0,1.3E1,6E0],"tree_param":{"num_deleted":"0","num_feature":"10","num_nodes":"15","size_leaf_vector":"0"}},{"base_weights":[2.2230288E-3,9.616876E-3,-1.0752056E-2,8.148695E-3,8.4926955E-2,-9.534214E-3,-1.5912466E-1,9.1397185E-3,-1.3762757E-1,8.750054E-1,7.71755E-2,-2.5366653E-2,1.6927234E-3,-9.772384E-2,-8.1130755E-1],"categories":[],"categories_nodes":[],"categories_segments":[],"categories_sizes":[],"default_left":[1,1,1,1,1,1,1,0,0,0,0,0,0,0,0],"id":74,"left_children":[1,3,5,7,9,11,13,-1,-1,-1,-1,-1,-1,-1,-1],"loss_changes":[1.0617509E1,7.7942953E0,7.2577024E0,9.991478E0,8.187972E0,7.083018E0,1.3015286E1,0E0,0E0,0E0,0E0,0E0,0E0,0E0,0E0],"parents":[2147483647,0,0,1,1,2,2,3,3,4,4,5,5,6,6],"right_children":[2,4,6,8,10,12,14,-1,-1,-1,-1,-1,-1,-1,-1],"split_conditions":[4.0564457E-1,1.6148374E0,9.962143E-1,1.3822756E0,1.6222336E0,6.321378E-1,-9.574707E-1,9.1397186E-4,-1.3762757E-2,8.750054E-2,7.71755E-3,-2.5366654E-3,1.6927235E-4,-9.772385E-3,-8.113076E-2],"split_indices":[4,3,2,3,3,3,6,0,0,0,0,0,0,0,0],"split_type":[0,0,0,0,0,0,0,0,0,0,0,0,0,0,0],"sum_hessian":[1.10671E5,7.0498E4,4.0173E4,6.9151E4,1.347E3,3.9847E4,3.26E2,6.8685E4,4.66E2,1.2E1,1.335E3,1.6532E4,2.3315E4,2.99E2,2.7E1],"tree_param":{"num_deleted":"0","num_feature":"10","num_nodes":"15","size_leaf_vector":"0"}},{"base_weights":[-9.490674E-4,-4.906005E-3,1.3822773E-2,-4.0116152E-4,-2.530943E-2,-2.0456001E-2,2.0296812E-2,-9.29637E-4,2.6099512E-1,1.2435856E-3,-4.089107E-2,8.256873E-2,-4.4332057E-2,5.5595607E-1,1.9530706E-2],"categories":[],"categories_nodes":[],"categories_segments":[],"categories_sizes":[],"default_left":[1,1,1,1,1,1,1,0,0,0,0,0,0,0,0],"id":75,"left_children":[1,3,5,7,9,11,13,-1,-1,-1,-1,-1,-1,-1,-1],"loss_changes":[6.4566517E0,8.007927E0,5.179634E0,9.859126E0,6.5193453E0,9.124687E0,8.0451565E0,0E0,0E0,0E0,0E0,0E0,0E0,0E0,0E0],"parents":[2147483647,0,0,1,1,2,2,3,3,4,4,5,5,6,6],"right_children":[2,4,6,8,10,12,14,-1,-1,-1,-1,-1,-1,-1,-1],"split_conditions":[7.568283E-1,7.525918E-1,-2.199367E0,7.4353236E-1,5.892604E-2,-9.436427E-1,-2.190612E0,-9.29637E-5,2.6099512E-2,1.2435856E-4,-4.0891073E-3,8.256873E-3,-4.433206E-3,5.5595607E-2,1.9530706E-3],"split_indices":[8,1,9,1,5,4,9,0,0,0,0,0,0,0,0],"split_type":[0,0,0,0,0,0,0,0,0,0,0,0,0,0,0],"sum_hessian":[1.1046E5,8.7123E4,2.3337E4,7.1367E4,1.5756E4,3.707E3,1.963E4,7.1224E4,1.43E2,5.827E3,9.929E3,6.97E2,3.01E3,2.7E1,1.9603E4],"tree_param":{"num_deleted":"0","num_feature":"10","num_nodes":"15","size_leaf_vector":"0"}},{"base_weights":[-3.7547643E-4,-9.1669925E-2,1.2312313E-4,-2.9034615E-2,-3.0607447E-1,1.6958416E-3,-2.3122955E-2,-1.0785374E-1,5.4060232E-2,-6.007266E-1,-1.89884E-1,8.0058444E-4,7.1899906E-2,-9.017364E-3,-8.337098E-2],"categories":[],"categories_nodes":[],"categories_segments":[],"categories_sizes":[],"default_left":[1,1,1,1,1,1,1,0,0,0,0,0,0,0,0],"id":76,"left_children":[1,3,5,7,9,11,13,-1,-1,-1,-1,-1,-1,-1,-1],"loss_changes":[5.0448775E0,8.07555E0,4.029924E0,3.06443E0,4.541996E0,6.4888983E0,5.935339E0,0E0,0E0,0E0,0E0,0E0,0E0,0E0,0E0],"parents":[2147483647,0,0,1,1,2,2,3,3,4,4,5,5,6,6],"right_children":[2,4,6,8,10,12,14,-1,-1,-1,-1,-1,-1,-1,-1],"split_conditions":[-1.5353658E0,-1.5572886E0,1.1918962E0,-1.2224967E0,-1.5510993E0,1.3415146E0,2.5055578E0,-1.0785374E-2,5.4060235E-3,-6.007266E-2,-1.89884E-2,8.0058446E-5,7.1899905E-3,-9.0173644E-4,-8.337098E-3],"split_indices":[2,2,8,0,2,2,0,0,0,0,0,0,0,0,0],"split_type":[0,0,0,0,0,0,0,0,0,0,0,0,0,0,0],"sum_hessian":[1.10828E5,6.01E2,1.10227E5,4.66E2,1.35E2,1.03243E5,6.984E3,2.39E2,2.27E2,3.7E1,9.8E1,1.01944E5,1.299E3,5.66E3,1.324E3],"tree_param":{"num_deleted":"0","num_feature":"10","num_nodes":"15","size_leaf_vector":"0"}},{"base_weights":[-1.4030229E-3,7.105702E-3,-4.704841E-3,-3.4504574E-2,1.1289805E-2,-5.182001E-2,-3.361805E-3,3.658071E-2,-5.240273E-2,1.1095738E-2,1.0957662E0,8.18368E-2,-6.398108E-2,-3.1015377E-3,-2.8611538E-1],"categories":[],"categories_nodes":[],"categories_segments":[],"categories_sizes":[],"default_left":[1,1,1,1,1,1,1,0,0,0,0,0,0,0,0],"id":77,"left_children":[1,3,5,7,9,11,13,-1,-1,-1,-1,-1,-1,-1,-1],"loss_changes":[3.0969763E0,5.3658547E0,5.0251236E0,3.5847008E0,5.8813725E0,3.5827618E0,5.681635E0,0E0,0E0,0E0,0E0,0E0,0E0,0E0,0E0],"parents":[2147483647,0,0,1,1,2,2,3,3,4,4,5,5,6,6],"right_children":[2,4,6,8,10,12,14,-1,-1,-1,-1,-1,-1,-1,-1],"split_conditions":[-5.057564E-1,-1.335742E0,-9.958295E-1,-1.4884233E0,1.6767116E0,-1.3810537E0,1.38324E0,3.6580712E-3,-5.240273E-3,1.1095739E-3,1.0957662E-1,8.18368E-3,-6.398108E-3,-3.101538E-4,-2.8611539E-2],"split_indices":[6,8,8,2,5,2,2,0,0,0,0,0,0,0,0],"split_type":[0,0,0,0,0,0,0,0,0,0,0,0,0,0,0],"sum_hessian":[1.10233E5,3.0817E4,7.9416E4,2.815E3,2.8002E4,2.2E3,7.7216E4,5.66E2,2.249E3,2.7998E4,4E0,1.83E2,2.017E3,7.7146E4,7E1],"tree_param":{"num_deleted":"0","num_feature":"10","num_nodes":"15","size_leaf_vector":"0"}},{"base_weights":[1.7707701E-3,2.7303635E-3,-5.7821542E-2,4.7714086E-3,-1.954534E-2,-2.3004323E-1,-1.9268947E-2,3.4239852E-1,4.5847343E-3,-3.340844E-2,5.3528044E-2,-1.7888498E-1,-7.011996E-1,3.60493E-2,-1.4192027E-1],"categories":[],"categories_nodes":[],"categories_segments":[],"categories_sizes":[],"default_left":[1,1,1,1,1,1,1,0,0,0,0,0,0,0,0],"id":78,"left_children":[1,3,5,7,9,11,13,-1,-1,-1,-1,-1,-1,-1,-1],"loss_changes":[6.314744E0,4.941126E0,1.1614855E1,6.273009E0,9.24259E0,7.587696E0,9.714245E0,0E0,0E0,0E0,0E0,0E0,0E0,0E0,0E0],"parents":[2147483647,0,0,1,1,2,2,3,3,4,4,5,5,6,6],"right_children":[2,4,6,8,10,12,14,-1,-1,-1,-1,-1,-1,-1,-1],"split_conditions":[2.997426E0,1.7261817E0,1.8413265E0,-2.8460035E0,5.697007E-1,-3.767457E-1,-1.7332548E-1,3.4239855E-2,4.5847343E-4,-3.340844E-3,5.3528044E-3,-1.78885E-2,-7.011996E-2,3.60493E-3,-1.4192027E-2],"split_indices":[9,6,1,0,1,6,6,0,0,0,0,0,0,0,0],"split_type":[0,0,0,0,0,0,0,0,0,0,0,0,0,0,0],"sum_hessian":[1.10424E5,1.08675E5,1.749E3,9.9554E4,9.121E3,3.19E2,1.43E3,5.4E1,9.95E4,7.667E3,1.454E3,2.89E2,3E1,9.86E2,4.44E2],"tree_param":{"num_deleted":"0","num_feature":"10","num_nodes":"15","size_leaf_vector":"0"}},{"base_weights":[2.9474078E-4,-8.897948E-3,4.312358E-3,1.9626372E-2,-1.7698213E-2,-1.1402267E-2,8.816604E-3,-9.228623E-3,4.4141434E-2,-6.2437677E-3,-5.4683488E-2,-1.4034019E-2,1.2785088E-1,1.5501718E-1,8.039736E-3],"categories":[],"categories_nodes":[],"categories_segments":[],"categories_sizes":[],"default_left":[1,1,1,1,1,1,1,0,0,0,0,0,0,0,0],"id":79,"left_children":[1,3,5,7,9,11,13,-1,-1,-1,-1,-1,-1,-1,-1],"loss_changes":[4.070244E0,8.413837E0,5.4284124E0,5.5908475E0,1.0851346E1,6.2630997E0,6.768708E0,0E0,0E0,0E0,0E0,0E0,0E0,0E0,0E0],"parents":[2147483647,0,0,1,1,2,2,3,3,4,4,5,5,6,6],"right_children":[2,4,6,8,10,12,14,-1,-1,-1,-1,-1,-1,-1,-1],"split_conditions":[-4.3743235E-1,-7.7622724E-1,-5.3237146E-1,1.7970726E-1,9.20208E-1,3.9069384E-1,-5.1798177E-1,-9.2286227E-4,4.4141435E-3,-6.2437676E-4,-5.468349E-3,-1.403402E-3,1.2785087E-2,1.5501718E-2,8.0397364E-4],"split_indices":[9,6,6,3,3,0,6,0,0,0,0,0,0,0,0],"split_type":[0,0,0,0,0,0,0,0,0,0,0,0,0,0,0],"sum_hessian":[1.10205E5,3.3516E4,7.6689E4,7.902E3,2.5614E4,1.7084E4,5.9605E4,3.63E3,4.272E3,1.9558E4,6.056E3,1.6768E4,3.16E2,3.14E2,5.9291E4],"tree_param":{"num_deleted":"0","num_feature":"10","num_nodes":"15","size_leaf_vector":"0"}},{"base_weights":[-1.8133997E-3,9.943827E-3,-5.245824E-3,4.565938E-3,5.0382156E-2,-6.16769E-3,5.309113E-2,6.349994E-3,-3.2910675E-1,2.1523032E-2,1.1709654E-1,-1.4178601E-1,-4.8822034E-3,2.6982093E-1,3.0942824E-2],"categories":[],"categories_nodes":[],"categories_segments":[],"categories_sizes":[],"default_left":[1,1,1,1,1,1,1,0,0,0,0,0,0,0,0],"id":80,"left_children":[1,3,5,7,9,11,13,-1,-1,-1,-1,-1,-1,-1,-1],"loss_changes":[4.450408E0,5.4191933E0,4.5908356E0,1.3096104E1,5.629038E0,1.4649068E1,6.3663125E0,0E0,0E0,0E0,0E0,0E0,0E0,0E0,0E0],"parents":[2147483647,0,0,1,1,2,2,3,3,4,4,5,5,6,6],"right_children":[2,4,6,8,10,12,14,-1,-1,-1,-1,-1,-1,-1,-1],"split_conditions":[-6.934471E-1,1.283114E-1,1.1690288E0,1.1996352E-1,-5.230813E-1,-6.6973317E-1,-1.0426974E0,6.349994E-4,-3.2910675E-2,2.1523032E-3,1.1709655E-2,-1.4178601E-2,-4.8822034E-4,2.6982093E-2,3.0942825E-3],"split_indices":[7,6,9,6,2,7,2,0,0,0,0,0,0,0,0],"split_type":[0,0,0,0,0,0,0,0,0,0,0,0,0,0,0],"sum_hessian":[1.10277E5,2.4919E4,8.5358E4,2.1995E4,2.924E3,8.4031E4,1.327E3,2.1879E4,1.16E2,2.042E3,8.82E2,7.88E2,8.3243E4,1.22E2,1.205E3],"tree_param":{"num_deleted":"0","num_feature":"10","num_nodes":"15","size_leaf_vector":"0"}},{"base_weights":[3.6069488E-3,5.1551363E-3,-3.0528344E-2,2.6027527E-2,6.0864387E-4,-3.6081818E-1,-2.0788563E-2,2.366182E-2,2.2196065E-1,-4.5099594E-2,2.5003946E-3,-2.179705E-1,-9.6228445E-1,-4.7603E-2,2.4691442E-2],"categories":[],"categories_nodes":[],"categories_segments":[],"categories_sizes":[],"default_left":[1,1,1,1,1,1,1,0,0,0,0,0,0,0,0],"id":81,"left_children":[1,3,5,7,9,11,13,-1,-1,-1,-1,-1,-1,-1,-1],"loss_changes":[5.8284273E0,1.001153E1,1.5385608E1,8.74138E0,7.490973E0,1.1561024E1,5.670727E0,0E0,0E0,0E0,0E0,0E0,0E0,0E0,0E0],"parents":[2147483647,0,0,1,1,2,2,3,3,4,4,5,5,6,6],"right_children":[2,4,6,8,10,12,14,-1,-1,-1,-1,-1,-1,-1,-1],"split_conditions":[2.0341227E0,-7.475746E-1,6.491003E-1,-7.56652E-1,-6.274374E-1,6.322399E-1,1.3033878E0,2.3661822E-3,2.2196066E-2,-4.5099594E-3,2.5003948E-4,-2.1797052E-2,-9.622844E-2,-4.7603003E-3,2.4691443E-3],"split_indices":[7,9,8,9,9,8,2,0,0,0,0,0,0,0,0],"split_type":[0,0,0,0,0,0,0,0,0,0,0,0,0,0,0],"sum_hessian":[1.10283E5,1.05499E5,4.784E3,1.8869E4,8.663E4,1.36E2,4.648E3,1.8645E4,2.24E2,3.442E3,8.3188E4,1.11E2,2.5E1,2.924E3,1.724E3],"tree_param":{"num_deleted":"0","num_feature":"10","num_nodes":"15","size_leaf_vector":"0"}},{"base_weights":[5.064331E-4,-4.2134176E-5,1.09046146E-1,3.0724623E-4,-1.8425901E-1,3.9635655E-2,2.607295E-1,-1.3394633E-3,2.1739142E-2,-1.669352E-1,-1.0303706E0,5.885672E-2,-5.134313E-1,8.557702E-1,2.0769677E-1],"categories":[],"categories_nodes":[],"categories_segments":[],"categories_sizes":[],"default_left":[1,1,1,1,1,1,1,0,0,0,0,0,0,0,0],"id":82,"left_children":[1,3,5,7,9,11,13,-1,-1,-1,-1,-1,-1,-1,-1],"loss_changes":[6.6069493E0,7.1060457E0,5.864521E0,3.8891838E0,2.8914914E0,4.1123443E0,5.3446665E0,0E0,0E0,0E0,0E0,0E0,0E0,0E0,0E0],"parents":[2147483647,0,0,1,1,2,2,3,3,4,4,5,5,6,6],"right_children":[2,4,6,8,10,12,14,-1,-1,-1,-1,-1,-1,-1,-1],"split_conditions":[2.924527E0,2.8314896E0,-7.134717E-1,1.8331983E0,2.4839257E-1,-7.2844124E-1,-7.684448E-2,-1.3394633E-4,2.1739143E-3,-1.6693521E-2,-1.0303706E-1,5.885672E-3,-5.134313E-2,8.557702E-2,2.0769676E-2],"split_indices":[6,6,3,1,3,3,2,0,0,0,0,0,0,0,0],"split_type":[0,0,0,0,0,0,0,0,0,0,0,0,0,0,0],"sum_hessian":[1.10963E5,1.10406E5,5.57E2,1.10198E5,2.08E2,3.83E2,1.74E2,1.02336E5,7.862E3,2.05E2,3E0,3.71E2,1.2E1,1.3E1,1.61E2],"tree_param":{"num_deleted":"0","num_feature":"10","num_nodes":"15","size_leaf_vector":"0"}},{"base_weights":[3.713755E-4,6.355541E-2,-3.0710103E-4,3.3387247E-2,1.8218644E-1,9.834614E-4,-8.252895E-2,6.1844636E-2,-1.7919028E-1,3.837161E-1,2.2911811E-2,-2.7963686E-1,1.2259012E-3,-7.3701724E-2,-4.0377158E-1],"categories":[],"categories_nodes":[],"categories_segments":[],"categories_sizes":[],"default_left":[1,1,1,1,1,1,1,0,0,0,0,0,0,0,0],"id":83,"left_children":[1,3,5,7,9,11,13,-1,-1,-1,-1,-1,-1,-1,-1],"loss_changes":[4.741233E0,4.199102E0,1.1611328E1,5.685421E0,7.6306653E0,7.3298674E0,4.765382E0,0E0,0E0,0E0,0E0,0E0,0E0,0E0,0E0],"parents":[2147483647,0,0,1,1,2,2,3,3,4,4,5,5,6,6],"right_children":[2,4,6,8,10,12,14,-1,-1,-1,-1,-1,-1,-1,-1],"split_conditions":[-2.9158142E0,-5.231559E-1,2.596139E0,2.0359546E-1,